{"learner":{"attributes":{"scikit_learn":"{\"_estimator_type\": \"classifier\"}"},"feature_names":["Age","Race","Mono","PLT","BMI","PAR","NPAR","LMR","Education"],"feature_types":["int","int","float","int","float","float","float","float","int"],"gradient_booster":{"model":{"gbtree_model_param":{"num_parallel_tree":"1","num_trees":"150"},"iteration_indptr":[0,1,2,3,4,5,6,7,8,9,10,11,12,13,14,15,16,17,18,19,20,21,22,23,24,25,26,27,28,29,30,31,32,33,34,35,36,37,38,39,40,41,42,43,44,45,46,47,48,49,50,51,52,53,54,55,56,57,58,59,60,61,62,63,64,65,66,67,68,69,70,71,72,73,74,75,76,77,78,79,80,81,82,83,84,85,86,87,88,89,90,91,92,93,94,95,96,97,98,99,100,101,102,103,104,105,106,107,108,109,110,111,112,113,114,115,116,117,118,119,120,121,122,123,124,125,126,127,128,129,130,131,132,133,134,135,136,137,138,139,140,141,142,143,144,145,146,147,148,149,150],"tree_info":[0,0,0,0,0,0,0,0,0,0,0,0,0,0,0,0,0,0,0,0,0,0,0,0,0,0,0,0,0,0,0,0,0,0,0,0,0,0,0,0,0,0,0,0,0,0,0,0,0,0,0,0,0,0,0,0,0,0,0,0,0,0,0,0,0,0,0,0,0,0,0,0,0,0,0,0,0,0,0,0,0,0,0,0,0,0,0,0,0,0,0,0,0,0,0,0,0,0,0,0,0,0,0,0,0,0,0,0,0,0,0,0,0,0,0,0,0,0,0,0,0,0,0,0,0,0,0,0,0,0,0,0,0,0,0,0,0,0,0,0,0,0,0,0,0,0,0,0,0,0],"trees":[{"base_weights":[-6.1861986E-1,-8.435879E-1,-2.9565513E-1,-1.0649354E0,-7.4017406E-1,-5.8721864E-1,4.705797E-3,-8.4322786E-1,-1.1269881E-1,-7.903566E-1,-2.851373E-1,-3.8531515E-1,-1.0035111E0,5.8861315E-1,-2.4643725E-1,-9.86188E-1,-3.0790892E-1,1.7760788E-1,-8.042901E-1,-5.271943E-1,1.152507E0,1.7409211E-1,-5.46913E-1,-3.8304865E-1,-1.0596343E0,2.606843E-1,3.531497E-1,-5.7042396E-1,1.2286375E-2,-1.4735848E-1,-1.098184E-1,-8.641533E-2,4.344157E-1,8.698387E-2,-6.0174447E-2,2.8588647E-2,-8.1429565E-1,-1.0360225E-1,-5.8297843E-2,1.850894E-1,-1.1121676E-2,1.1420437E0,-3.804374E-1,-6.3118356E-1,1.2353369E-1,-7.803846E-2,3.7931096E-2,-2.320918E-2,-1.093477E-1,1.6879405E0,8.308281E-2,3.3310324E-1,-7.831575E-1,2.0319638E-1,-8.56176E-1,3.7931096E-2,-6.0174447E-2,-6.36432E-2,1.3603663E-1,-6.81298E-1,-8.8485986E-1,1.6693641E-1,-4.7788742E-1,-1.8579472E-2,2.1274059E-1,-8.2892907E-1,2.4806194E-1,-8.24796E-1,-2.4190438E-1,-1.4735848E-1,3.514001E-1,1.1837714E0,-3.7980467E-1,-4.082222E-1,1.2552981E-1,4.5345504E-2,-8.937901E-1,-3.1447458E-1,1.0669909E0,-1.7527275E-2,-9.680685E-2,-9.720239E-1,-3.702577E-1,-9.2599916E-1,-5.294735E-1,-9.460497E-2,1.1607722E-1,-7.193678E-2,8.698387E-2,-9.519704E-2,-1.1121676E-2,8.9032716E-1,-7.193678E-2,2.4428067E-4,-8.719005E-1,-7.1235144E-1,2.3484555E-1,3.7931096E-2,-6.0174447E-2,8.167129E-2,2.61242E-1,-7.208309E-1,3.0136034E-1,2.8588647E-2,-7.803846E-2,-9.702122E-1,2.4428067E-4,-9.4681084E-1,2.2398078E-1,-2.9662356E-1,1.4910363E0,-9.994693E-1,-1.1121676E-2,3.4226885E-1,-6.613699E-1,-7.3581576E-1,-9.9657863E-1,7.465572E-2,-7.963564E-1,-6.946788E-2,6.7124045E-1,1.508343E-1,-1.7527275E-2,-1.0950457E-1,-6.400546E-1,-1.0182368E-2,-8.682774E-1,1.6816603E0,-4.5157394E-1,-8.12829E-2,1.1186143E-1,-1.7594688E-1,-1.01480365E-1,1.152507E0,-4.082222E-1,-1.01060405E-1,-1.7527275E-2,-1.7527275E-2,-1.0360225E-1,1.4906715E-1,-1.4521313E-1,-7.193678E-2,3.7931096E-2,2.0003111E0,-1.4735848E-1,-1.0268021E-1,-2.8283477E-2,-4.64671E-2,2.1274059E-1,-1.0360225E-1,-4.0314745E-2,-1.3937289E-2,-8.6083606E-2,-6.859348E-2,-1.0710847E-1,1.2900926E-2,-9.500336E-2,2.0301694E-2,8.698387E-2,6.381257E-2,-7.866711E-2,-3.284268E-2,-9.6295975E-2,3.7931096E-2,2.1305235E-1,-9.460497E-2,5.0257422E-2,6.577348E-2,-8.271577E-2,-1.1121676E-2,1.850894E-1,-7.972912E-2,3.7931096E-2,6.2045485E-2,-5.700397E-2,2.6274619E-1,8.713307E-2,3.7931096E-2,-6.0174447E-2],"categories":[],"categories_nodes":[],"categories_segments":[],"categories_sizes":[],"default_left":[0,0,0,0,0,0,0,0,0,0,0,0,0,0,0,0,0,0,0,0,0,0,0,0,0,0,0,0,0,0,0,0,0,0,0,0,0,0,0,0,0,0,0,0,0,0,0,0,0,0,0,0,0,0,0,0,0,0,0,0,0,0,0,0,0,0,0,0,0,0,0,0,0,0,0,0,0,0,0,0,0,0,0,0,0,0,0,0,0,0,0,0,0,0,0,0,0,0,0,0,0,0,0,0,0,0,0,0,0,0,0,0,0,0,0,0,0,0,0,0,0,0,0,0,0,0,0,0,0,0,0,0,0,0,0,0,0,0,0,0,0,0,0,0,0,0,0,0,0,0,0,0,0,0,0,0,0,0,0,0,0,0,0,0,0,0,0,0,0,0,0,0,0,0,0,0,0,0,0],"id":0,"left_children":[1,3,5,7,9,11,13,15,-1,17,19,21,23,25,27,29,31,33,35,37,39,41,43,45,47,-1,49,51,53,55,-1,-1,57,-1,-1,-1,59,-1,61,-1,-1,63,65,67,-1,-1,-1,-1,-1,69,71,73,75,77,79,-1,-1,-1,-1,81,83,-1,85,87,-1,89,91,93,95,97,-1,99,101,103,-1,-1,105,107,109,-1,-1,111,113,115,117,-1,119,-1,-1,-1,-1,121,-1,-1,123,125,127,-1,-1,129,-1,131,133,-1,-1,135,-1,137,139,141,143,145,-1,147,149,151,153,-1,155,-1,157,-1,-1,-1,159,-1,161,163,165,-1,-1,167,-1,169,171,-1,-1,-1,-1,-1,173,-1,-1,175,177,-1,-1,-1,-1,-1,-1,-1,-1,-1,-1,-1,-1,-1,-1,-1,-1,-1,-1,-1,-1,-1,-1,-1,-1,-1,-1,-1,-1,-1,-1,-1,-1,-1,-1],"loss_changes":[3.129123E1,5.0564423E0,1.5746221E1,1.3689423E-1,3.8233948E0,7.281313E0,1.3275941E1,1.3228292E0,0E0,2.2890625E0,7.28064E0,5.795558E0,6.099644E-1,1.2017325E1,5.314451E0,1.3713322E0,2.825405E0,2.1835666E0,1.9458923E0,4.0191255E0,2.9217257E0,8.427633E0,8.164026E0,1.5034297E0,4.796028E-1,0E0,9.065561E0,5.668519E0,6.1730933E0,9.6466655E-1,0E0,0E0,4.045757E0,0E0,0E0,0E0,8.600998E-1,0E0,8.016487E0,0E0,0E0,6.5282717E0,3.0857744E0,3.388668E0,0E0,0E0,0E0,0E0,0E0,1.4746682E1,1.1807123E1,4.6575785E0,3.5615854E0,1.3960934E1,3.4172916E-1,0E0,0E0,0E0,0E0,4.9195995E0,9.498215E-1,0E0,2.5539706E0,2.8649218E0,0E0,4.410267E-1,3.7625246E0,1.2248898E0,4.031386E0,9.6466655E-1,0E0,1.0559844E1,4.0383654E0,1.2863157E0,0E0,0E0,1.4758224E0,6.9621806E0,7.1763153E0,0E0,0E0,5.8724976E-1,6.4121447E0,4.3378448E-1,4.8700237E0,0E0,2.6110325E0,0E0,0E0,0E0,0E0,2.5474102E0,0E0,0E0,8.3522797E-1,7.606983E-1,1.0004332E1,0E0,0E0,5.4494195E0,0E0,1.6245079E0,4.2108583E0,0E0,0E0,4.594307E-1,0E0,4.5915222E-1,5.6019907E0,1.3005693E0,7.8454494E0,2.6829147E-1,0E0,1.4398095E1,1.6635561E0,1.9198141E0,6.67675E-1,0E0,1.6679187E0,0E0,1.3370049E-1,0E0,0E0,0E0,3.6819878E0,0E0,4.0111065E-2,1.0666466E0,3.8261573E0,0E0,0E0,3.342432E0,0E0,2.9217257E0,1.5635407E0,0E0,0E0,0E0,0E0,0E0,3.5505874E0,0E0,0E0,2.6471214E0,9.6466655E-1,0E0,0E0,0E0,0E0,0E0,0E0,0E0,0E0,0E0,0E0,0E0,0E0,0E0,0E0,0E0,0E0,0E0,0E0,0E0,0E0,0E0,0E0,0E0,0E0,0E0,0E0,0E0,0E0,0E0,0E0,0E0,0E0,0E0,0E0],"parents":[2147483647,0,0,1,1,2,2,3,3,4,4,5,5,6,6,7,7,9,9,10,10,11,11,12,12,13,13,14,14,15,15,16,16,17,17,18,18,19,19,20,20,21,21,22,22,23,23,24,24,26,26,27,27,28,28,29,29,32,32,36,36,38,38,41,41,42,42,43,43,49,49,50,50,51,51,52,52,53,53,54,54,59,59,60,60,62,62,63,63,65,65,66,66,67,67,68,68,69,69,71,71,72,72,73,73,76,76,77,77,78,78,81,81,82,82,83,83,84,84,86,86,91,91,94,94,95,95,96,96,99,99,101,101,102,102,105,105,107,107,108,108,109,109,110,110,111,111,113,113,114,114,115,115,116,116,118,118,120,120,124,124,126,126,127,127,128,128,131,131,133,133,134,134,140,140,143,143,144,144],"right_children":[2,4,6,8,10,12,14,16,-1,18,20,22,24,26,28,30,32,34,36,38,40,42,44,46,48,-1,50,52,54,56,-1,-1,58,-1,-1,-1,60,-1,62,-1,-1,64,66,68,-1,-1,-1,-1,-1,70,72,74,76,78,80,-1,-1,-1,-1,82,84,-1,86,88,-1,90,92,94,96,98,-1,100,102,104,-1,-1,106,108,110,-1,-1,112,114,116,118,-1,120,-1,-1,-1,-1,122,-1,-1,124,126,128,-1,-1,130,-1,132,134,-1,-1,136,-1,138,140,142,144,146,-1,148,150,152,154,-1,156,-1,158,-1,-1,-1,160,-1,162,164,166,-1,-1,168,-1,170,172,-1,-1,-1,-1,-1,174,-1,-1,176,178,-1,-1,-1,-1,-1,-1,-1,-1,-1,-1,-1,-1,-1,-1,-1,-1,-1,-1,-1,-1,-1,-1,-1,-1,-1,-1,-1,-1,-1,-1,-1,-1,-1,-1],"split_conditions":[3.8E1,2.5E1,1.4119048E0,2.22E1,3.77E1,3.111E1,4.2E1,1.5461539E0,-1.1269881E-1,3E0,8.9E0,1.106383E0,5.2093024E0,2.2E0,2E0,4.6511626E0,3.1E0,7.804878E0,8.5E-1,4.1E0,9.6E0,4.4E1,1.051282E1,8.4E0,3.9E1,2.606843E-1,1.45E0,2.875E0,5.125E0,2.3E1,-1.098184E-1,-8.641533E-2,5.5E0,8.698387E-2,-6.0174447E-2,2.8588647E-2,1.3731707E0,-1.0360225E-1,4.375E0,1.850894E-1,-1.1121676E-2,4E1,2.578E1,4.8E1,1.2353369E-1,-7.803846E-2,3.7931096E-2,-2.320918E-2,-1.093477E-1,3.141E1,2.449E1,2.625E0,4.1E0,3.8181818E0,5.0227275E0,3.7931096E-2,-6.0174447E-2,-6.36432E-2,1.3603663E-1,3.1E1,3.338E1,1.6693641E-1,2E0,2.586E1,2.1274059E-1,6.714286E0,7.25E0,1.928E1,6.7173915E0,4.1E1,3.514001E-1,1.6581396E0,8.609756E0,2.3636363E0,1.2552981E-1,4.5345504E-2,5.3E1,1.548718E0,5.5E0,-1.7527275E-2,-9.680685E-2,1.3522727E0,2.266E1,2.9E1,3.363E1,-9.460497E-2,4.086E1,-7.193678E-2,8.698387E-2,-9.519704E-2,-1.1121676E-2,2.792E1,-7.193678E-2,2.4428067E-4,7.2E0,5.135135E0,7.022222E0,3.7931096E-2,-6.0174447E-2,6.568182E0,2.61242E-1,6E0,3.407E1,2.8588647E-2,-7.803846E-2,4.536E1,2.4428067E-4,1.4363636E0,1.604762E0,6.8974357E0,8.555555E0,3.427E1,-1.1121676E-2,2.2E1,6.4E0,1.4775E0,5.6E0,7.465572E-2,6.0238094E0,-6.946788E-2,5.8E0,1.508343E-1,-1.7527275E-2,-1.0950457E-1,7.6E0,-1.0182368E-2,2.262E1,4.428571E0,8.8E0,-8.12829E-2,1.1186143E-1,5.125E0,-1.01480365E-1,3.1E0,4.294E1,-1.01060405E-1,-1.7527275E-2,-1.7527275E-2,-1.0360225E-1,1.4906715E-1,2.4285715E0,-7.193678E-2,3.7931096E-2,4.375E0,4.6E1,-1.0268021E-1,-2.8283477E-2,-4.64671E-2,2.1274059E-1,-1.0360225E-1,-4.0314745E-2,-1.3937289E-2,-8.6083606E-2,-6.859348E-2,-1.0710847E-1,1.2900926E-2,-9.500336E-2,2.0301694E-2,8.698387E-2,6.381257E-2,-7.866711E-2,-3.284268E-2,-9.6295975E-2,3.7931096E-2,2.1305235E-1,-9.460497E-2,5.0257422E-2,6.577348E-2,-8.271577E-2,-1.1121676E-2,1.850894E-1,-7.972912E-2,3.7931096E-2,6.2045485E-2,-5.700397E-2,2.6274619E-1,8.713307E-2,3.7931096E-2,-6.0174447E-2],"split_indices":[0,0,6,4,4,4,0,6,0,2,2,6,5,7,8,5,7,5,6,7,2,0,5,2,0,0,6,7,7,0,0,0,2,0,0,0,6,0,7,0,0,0,4,0,0,0,0,0,0,4,4,7,2,7,5,0,0,0,0,0,4,0,8,4,0,7,5,4,5,0,0,6,5,7,0,0,0,6,2,0,0,6,4,0,4,0,4,0,0,0,0,4,0,0,2,5,5,0,0,5,0,2,4,0,0,4,0,6,6,5,5,4,0,4,2,6,2,0,5,0,2,0,0,0,2,0,4,7,2,0,0,7,0,7,4,0,0,0,0,0,7,0,0,7,0,0,0,0,0,0,0,0,0,0,0,0,0,0,0,0,0,0,0,0,0,0,0,0,0,0,0,0,0,0,0,0,0,0,0],"split_type":[0,0,0,0,0,0,0,0,0,0,0,0,0,0,0,0,0,0,0,0,0,0,0,0,0,0,0,0,0,0,0,0,0,0,0,0,0,0,0,0,0,0,0,0,0,0,0,0,0,0,0,0,0,0,0,0,0,0,0,0,0,0,0,0,0,0,0,0,0,0,0,0,0,0,0,0,0,0,0,0,0,0,0,0,0,0,0,0,0,0,0,0,0,0,0,0,0,0,0,0,0,0,0,0,0,0,0,0,0,0,0,0,0,0,0,0,0,0,0,0,0,0,0,0,0,0,0,0,0,0,0,0,0,0,0,0,0,0,0,0,0,0,0,0,0,0,0,0,0,0,0,0,0,0,0,0,0,0,0,0,0,0,0,0,0,0,0,0,0,0,0,0,0,0,0,0,0,0,0],"sum_hessian":[4.331049E2,2.5433228E2,1.7877261E2,7.802639E1,1.763059E2,9.023019E1,8.854243E1,2.0253107E1,5.7773285E1,1.5813002E2,1.8175865E1,6.2057594E1,2.817259E1,2.6225176E1,6.231725E1,1.5319657E1,4.933449E0,2.0772417E0,1.5605278E2,1.6098623E1,2.0772417E0,1.3891554E1,4.8166042E1,2.9860349E0,2.5186556E1,1.6877588E0,2.4537416E1,2.7133968E1,3.518328E1,2.0772417E0,1.3242415E1,2.7263796E0,2.2070692E0,1.0386208E0,1.0386208E0,1.1684484E0,1.5488434E2,7.140518E0,8.958105E0,1.0386208E0,1.0386208E0,4.673794E0,9.21776E0,4.660811E1,1.5579312E0,1.947414E0,1.0386208E0,1.2982761E0,2.3888279E1,3.24569E0,2.1291727E1,5.063277E0,2.2070692E1,2.9470865E1,5.7124147E0,1.0386208E0,1.0386208E0,1.1684484E0,1.0386208E0,5.73838E1,9.7500534E1,1.1684484E0,7.789656E0,2.5965521E0,2.0772417E0,5.1931043E0,4.024656E0,3.037966E1,1.622845E1,2.0772417E0,1.1684484E0,5.8422422E0,1.5449485E1,3.1158624E0,1.947414E0,1.5579312E0,2.0512762E1,1.8825003E1,1.0645864E1,1.1684484E0,4.5439663E0,2.8562073E1,2.8821728E1,8.594588E1,1.1554657E1,4.024656E0,3.7650006E0,1.5579312E0,1.0386208E0,4.1544833E0,1.0386208E0,2.4667244E0,1.5579312E0,1.6877588E0,2.86919E1,7.9194837E0,8.308967E0,1.0386208E0,1.0386208E0,3.894828E0,1.947414E0,1.0256381E1,5.1931043E0,1.1684484E0,1.947414E0,1.8825003E1,1.6877588E0,8.308967E0,1.0516036E1,2.5965521E0,8.049312E0,2.7523453E1,1.0386208E0,8.308967E0,2.0512762E1,2.6355003E1,5.959087E1,1.6877588E0,9.866898E0,1.4281037E0,2.336897E0,1.2982761E0,1.1684484E0,1.2723105E1,1.5968795E1,1.947414E0,5.9720697E0,2.2070692E0,6.1018972E0,2.2070692E0,1.6877588E0,4.1544833E0,6.1018972E0,2.0772417E0,3.1158624E0,1.7656553E1,1.1684484E0,1.1684484E0,7.140518E0,1.6877588E0,8.828277E0,1.5579312E0,1.0386208E0,5.9720697E0,2.0772417E0,2.6095348E1,1.4281037E0,6.2317247E0,2.0772417E0,7.140518E0,1.3372243E1,4.933449E0,2.1421555E1,1.350207E1,4.60888E1,1.4281037E0,8.438794E0,1.2982761E0,1.0386208E0,1.2982761E0,1.4670519E1,1.5579312E0,4.4141383E0,1.0386208E0,1.1684484E0,4.024656E0,2.0772417E0,1.8175864E0,2.336897E0,1.0386208E0,1.0386208E0,2.0772417E0,1.0386208E0,2.9860349E0,5.8422422E0,2.9860349E0,2.9860349E0,1.0386208E0,1.0386208E0],"tree_param":{"num_deleted":"0","num_feature":"9","num_nodes":"179","size_leaf_vector":"1"}},{"base_weights":[-5.837247E-1,-8.097426E-1,-2.7003375E-1,-1.0386876E0,-7.050947E-1,-5.5328655E-1,1.1915003E-2,-8.1183106E-1,-1.10363E-1,-7.559346E-1,-2.5723153E-1,-3.5623074E-1,-9.7527826E-1,5.443672E-1,-2.2616175E-1,-9.581259E-1,-2.8750402E-1,-6.730426E-1,-9.515583E-1,5.6206524E-1,-5.382059E-1,1.638029E-1,-5.1320827E-1,-2.4267955E-1,-1.036304E0,-7.709602E-1,8.20659E-1,-5.3682774E-1,1.2774182E-2,-1.411484E-1,-1.0745769E-1,-8.390531E-2,4.047637E-1,-1.0849992E-1,-6.050572E-1,-1.0880218E-1,-6.5302914E-1,-7.600798E-2,1.5046438E0,4.8374426E-1,-8.1603146E-1,8.3746666E-1,-8.4371674E-1,-5.971492E-1,1.0984917E-1,-6.810248E-2,3.9396506E-2,-2.2108842E-2,-1.0710406E-1,-9.53998E-3,-9.070806E-2,2.7929622E-1,5.5425614E-1,3.0521214E-1,-7.490731E-1,1.8763141E-1,-8.285679E-1,-5.9878897E-2,3.8599234E-2,8.181116E-2,-1.7822936E-2,-8.9714396E-1,-5.074955E-1,-7.942108E-1,2.0986761E-1,1.8536407E-1,3.684933E-2,1.3104056E-1,-6.468876E-2,-1.0328372E-1,-1.9522509E-1,9.7571587E-4,2.216991E-1,-9.653055E-2,-9.065697E-3,-7.9134315E-1,-2.2070998E-1,-4.711251E-3,1.0390333E0,8.979048E-1,-7.577531E-2,-1.0001093E0,-3.4372783E-1,-2.9032066E-1,9.240834E-1,-1.0297696E-2,-9.4798E-2,5.3207934E-2,-1.0183595E0,-6.1568576E-1,-1.5905781E-1,-2.3060745E-1,-1.0436221E-1,-5.881245E-2,9.01162E-2,-7.519775E-2,5.2732002E-2,7.172049E-1,-8.473244E-2,2.2891919E-4,-8.392501E-1,-6.843906E-1,2.2951336E-1,9.150751E-1,-6.0794216E-1,-3.383701E-1,1.5002917E0,-2.0676368E-1,2.1763694E-1,-1.2743312E-2,-1.0691488E-1,-9.536781E-2,3.426493E-1,-9.191322E-1,2.1145022E-1,1.4008087E0,-1.0956804E-1,-4.9955565E-3,-1.1070072E-1,-4.1386342E-1,-8.4460354E-1,5.2996284E-1,-5.838091E-1,6.756903E-2,-6.561591E-1,-7.1862735E-2,1.7981215E-1,-6.2183946E-1,-1.0113991E0,-2.2972569E-1,-9.408087E-2,1.4904195E0,-4.258628E-1,-2.6936153E-2,1.4601896E0,-9.5681004E-2,2.4012359E-2,-7.467476E-2,3.6181763E-2,2.145349E0,5.994231E-1,-6.569191E-2,4.0330116E-2,-2.5502428E-1,9.341813E-2,-1.6697584E-2,-1.0109575E-1,1.3056026E-1,-1.3258862E-1,4.9503174E-1,2.9659018E-1,9.2956506E-2,-8.3326705E-2,-5.16492E-2,1.2816593E-1,7.0996985E-2,-9.521922E-2,-7.130989E-2,9.630702E-2,7.734539E-2,-7.9378694E-2,-1.2457028E-2,-7.98071E-2,-8.607732E-2,1.0173892E-1,-1.0723833E-1,-3.22821E-2,-7.3558345E-2,3.432558E-2,3.549472E-2,1.8551014E-1,1.175306E-2,-8.690899E-2,1.9266988E-1,2.8909221E-2,1.2573572E-2,2.95331E-1,1.570467E-1,-7.6203E-2,-5.8706332E-2,1.180715E-2,5.5491637E-2,-5.403874E-2,1.5297364E-1,-4.4070877E-2],"categories":[],"categories_nodes":[],"categories_segments":[],"categories_sizes":[],"default_left":[0,0,0,0,0,0,0,0,0,0,0,0,0,0,0,0,0,0,0,0,0,0,0,0,0,0,0,0,0,0,0,0,0,0,0,0,0,0,0,0,0,0,0,0,0,0,0,0,0,0,0,0,0,0,0,0,0,0,0,0,0,0,0,0,0,0,0,0,0,0,0,0,0,0,0,0,0,0,0,0,0,0,0,0,0,0,0,0,0,0,0,0,0,0,0,0,0,0,0,0,0,0,0,0,0,0,0,0,0,0,0,0,0,0,0,0,0,0,0,0,0,0,0,0,0,0,0,0,0,0,0,0,0,0,0,0,0,0,0,0,0,0,0,0,0,0,0,0,0,0,0,0,0,0,0,0,0,0,0,0,0,0,0,0,0,0,0,0,0,0,0,0,0,0,0,0,0,0,0,0,0,0,0,0,0],"id":1,"left_children":[1,3,5,7,9,11,13,15,-1,17,19,21,23,25,27,29,31,33,35,37,39,41,43,45,47,49,51,53,55,57,-1,-1,59,-1,61,-1,63,-1,65,67,69,71,73,75,-1,-1,-1,-1,-1,-1,-1,-1,77,79,81,83,85,-1,-1,-1,-1,87,89,91,93,-1,-1,-1,-1,-1,95,97,-1,-1,-1,99,101,103,105,107,-1,109,111,113,115,-1,-1,-1,117,119,121,123,-1,-1,-1,-1,-1,125,-1,-1,127,129,131,133,135,137,139,141,-1,-1,-1,-1,143,145,147,149,151,-1,-1,153,155,157,159,-1,161,-1,-1,163,165,167,-1,169,171,-1,173,-1,-1,-1,-1,175,177,-1,-1,179,-1,-1,-1,-1,181,183,-1,-1,-1,-1,-1,-1,-1,-1,-1,-1,-1,-1,-1,-1,-1,-1,-1,-1,-1,-1,-1,-1,-1,-1,-1,-1,-1,-1,-1,-1,-1,-1,-1,-1,-1],"loss_changes":[2.9237885E1,5.0411377E0,1.4021603E1,1.8659973E-1,3.6421127E0,6.933956E0,1.1395737E1,1.2690954E0,0E0,1.8049393E0,4.605691E0,5.08537E0,9.6891975E-1,1.0724569E1,4.6206574E0,1.3053303E0,2.5623226E0,2.405754E0,1.0194817E0,7.7022724E0,4.4918675E0,1.0862779E1,7.0553017E0,1.218489E0,4.6811485E-1,4.0416694E-1,1.0764547E1,5.0621185E0,5.467908E0,9.697632E-1,0E0,0E0,9.3042815E-1,0E0,2.2835236E0,0E0,2.094368E0,0E0,6.6827536E-1,4.3173776E0,1.3755469E0,1.0925125E1,5.0711536E-1,3.1593838E0,0E0,0E0,0E0,0E0,0E0,0E0,0E0,0E0,5.937201E0,4.55821E0,1.8836842E0,1.1078785E1,4.5674944E-1,0E0,0E0,0E0,0E0,4.485256E0,2.704836E0,1.700242E0,2.1937006E0,0E0,0E0,0E0,0E0,0E0,2.1127124E0,4.797174E0,0E0,0E0,0E0,1.131136E0,3.6867385E0,6.7503953E0,7.959428E0,6.6773086E0,0E0,6.4665604E-1,4.469639E0,6.311016E0,6.227642E0,0E0,0E0,0E0,1.775444E0,2.2554626E0,5.8594446E0,2.5720725E0,0E0,0E0,0E0,0E0,0E0,7.935279E0,0E0,0E0,4.1948318E-1,7.842283E-1,8.342438E0,3.5059037E0,2.402223E0,1.3448483E0,3.9268818E0,1.1653528E0,0E0,0E0,0E0,0E0,2.1444664E0,4.3835306E-1,4.5378866E0,1.0593603E1,4.3979173E0,0E0,0E0,6.217484E0,4.9340057E0,4.8626137E0,4.093081E0,0E0,2.2219431E-1,0E0,0E0,6.740961E0,2.4326515E-1,1.532813E0,0E0,7.544761E-1,1.7676109E0,0E0,1.331747E0,0E0,0E0,0E0,0E0,7.525919E0,7.979808E0,0E0,0E0,4.9887997E-1,0E0,0E0,0E0,0E0,3.0275903E0,7.0544753E0,0E0,0E0,0E0,0E0,0E0,0E0,0E0,0E0,0E0,0E0,0E0,0E0,0E0,0E0,0E0,0E0,0E0,0E0,0E0,0E0,0E0,0E0,0E0,0E0,0E0,0E0,0E0,0E0,0E0,0E0,0E0,0E0,0E0,0E0,0E0],"parents":[2147483647,0,0,1,1,2,2,3,3,4,4,5,5,6,6,7,7,9,9,10,10,11,11,12,12,13,13,14,14,15,15,16,16,17,17,18,18,19,19,20,20,21,21,22,22,23,23,24,24,25,25,26,26,27,27,28,28,29,29,32,32,34,34,36,36,38,38,39,39,40,40,41,41,42,42,43,43,52,52,53,53,54,54,55,55,56,56,61,61,62,62,63,63,64,64,70,70,71,71,75,75,76,76,77,77,78,78,79,79,81,81,82,82,83,83,84,84,88,88,89,89,90,90,91,91,97,97,100,100,101,101,102,102,103,103,104,104,105,105,106,106,107,107,112,112,113,113,114,114,115,115,116,116,119,119,120,120,121,121,122,122,124,124,127,127,128,128,129,129,131,131,132,132,134,134,139,139,140,140,143,143,148,148,149,149],"right_children":[2,4,6,8,10,12,14,16,-1,18,20,22,24,26,28,30,32,34,36,38,40,42,44,46,48,50,52,54,56,58,-1,-1,60,-1,62,-1,64,-1,66,68,70,72,74,76,-1,-1,-1,-1,-1,-1,-1,-1,78,80,82,84,86,-1,-1,-1,-1,88,90,92,94,-1,-1,-1,-1,-1,96,98,-1,-1,-1,100,102,104,106,108,-1,110,112,114,116,-1,-1,-1,118,120,122,124,-1,-1,-1,-1,-1,126,-1,-1,128,130,132,134,136,138,140,142,-1,-1,-1,-1,144,146,148,150,152,-1,-1,154,156,158,160,-1,162,-1,-1,164,166,168,-1,170,172,-1,174,-1,-1,-1,-1,176,178,-1,-1,180,-1,-1,-1,-1,182,184,-1,-1,-1,-1,-1,-1,-1,-1,-1,-1,-1,-1,-1,-1,-1,-1,-1,-1,-1,-1,-1,-1,-1,-1,-1,-1,-1,-1,-1,-1,-1,-1,-1,-1,-1],"split_conditions":[3.8E1,2.5E1,1.4119048E0,2.22E1,3.77E1,3.111E1,4.2E1,1.5461539E0,-1.10363E-1,3.19E2,3.906E1,1.106383E0,2.11E2,2.31E2,2E0,4.6511626E0,3.1E0,1.94E2,3.3E1,6.8974357E0,1.2702128E0,3.03E2,1.051282E1,1.3022223E0,3.9E1,2.22E1,2.2E0,2.875E0,5.125E0,1.88E2,-1.0745769E-1,-8.390531E-2,1.6604651E0,-1.0849992E-1,1E0,-1.0880218E-1,3.35E1,-7.600798E-2,4.285714E0,5.8333335E0,4.571429E0,6.5128207E0,1.0787234E0,4.8E1,1.0984917E-1,-6.810248E-2,3.9396506E-2,-2.2108842E-2,-1.0710406E-1,-9.53998E-3,-9.070806E-2,2.7929622E-1,3.6923077E0,3.223E1,1.5975E0,3.8181818E0,1.92E2,-5.9878897E-2,3.8599234E-2,8.181116E-2,-1.7822936E-2,1.0488372E0,2.957E1,3.75E0,1.4744186E0,1.8536407E-1,3.684933E-2,1.3104056E-1,-6.468876E-2,-1.0328372E-1,2E0,4.6E1,2.216991E-1,-9.653055E-2,-9.065697E-3,1.928E1,6.7173915E0,7.27907E0,1E0,2.625E0,-7.577531E-2,3.2222223E0,4.375E0,1.548718E0,3E2,-1.0297696E-2,-9.4798E-2,5.3207934E-2,5.0869565E0,1.4825E0,3.192E1,1.3847826E0,-1.0436221E-1,-5.881245E-2,9.01162E-2,-7.519775E-2,5.2732002E-2,4E1,-8.473244E-2,2.2891919E-4,2.51E1,2.42E2,7.022222E0,6.15E0,1.6795454E0,4.043E1,1.5255814E0,2.841E1,2.1763694E-1,-1.2743312E-2,-1.0691488E-1,-9.536781E-2,1E0,1.4363636E0,1.604762E0,2.83E2,4.2222223E0,-4.9955565E-3,-1.1070072E-1,7.2954545E0,1.99E2,2.8461537E0,2.3636363E0,6.756903E-2,8.642858E0,-7.1862735E-2,1.7981215E-1,2.461E1,8.694445E0,2.18E2,-9.408087E-2,4.428571E0,4.1E0,-2.6936153E-2,2E0,-9.5681004E-2,2.4012359E-2,-7.467476E-2,3.6181763E-2,3.16E2,3.17E2,-6.569191E-2,4.0330116E-2,6.909091E0,9.341813E-2,-1.6697584E-2,-1.0109575E-1,1.3056026E-1,2.4285715E0,1.5255814E0,2.9659018E-1,9.2956506E-2,-8.3326705E-2,-5.16492E-2,1.2816593E-1,7.0996985E-2,-9.521922E-2,-7.130989E-2,9.630702E-2,7.734539E-2,-7.9378694E-2,-1.2457028E-2,-7.98071E-2,-8.607732E-2,1.0173892E-1,-1.0723833E-1,-3.22821E-2,-7.3558345E-2,3.432558E-2,3.549472E-2,1.8551014E-1,1.175306E-2,-8.690899E-2,1.9266988E-1,2.8909221E-2,1.2573572E-2,2.95331E-1,1.570467E-1,-7.6203E-2,-5.8706332E-2,1.180715E-2,5.5491637E-2,-5.403874E-2,1.5297364E-1,-4.4070877E-2],"split_indices":[0,0,6,4,4,4,0,6,0,3,4,6,3,3,8,5,7,3,0,5,6,3,5,6,0,4,7,7,7,3,0,0,6,0,8,0,4,0,7,7,7,5,6,0,0,0,0,0,0,0,0,0,7,4,6,7,3,0,0,0,0,6,4,7,6,0,0,0,0,0,8,0,0,0,0,4,5,5,8,7,0,7,7,6,3,0,0,0,5,6,4,6,0,0,0,0,0,0,0,0,4,3,5,5,6,4,6,4,0,0,0,0,8,6,6,3,7,0,0,5,3,7,7,0,5,0,0,4,5,3,0,7,7,0,8,0,0,0,0,3,3,0,0,5,0,0,0,0,7,6,0,0,0,0,0,0,0,0,0,0,0,0,0,0,0,0,0,0,0,0,0,0,0,0,0,0,0,0,0,0,0,0,0,0,0],"split_type":[0,0,0,0,0,0,0,0,0,0,0,0,0,0,0,0,0,0,0,0,0,0,0,0,0,0,0,0,0,0,0,0,0,0,0,0,0,0,0,0,0,0,0,0,0,0,0,0,0,0,0,0,0,0,0,0,0,0,0,0,0,0,0,0,0,0,0,0,0,0,0,0,0,0,0,0,0,0,0,0,0,0,0,0,0,0,0,0,0,0,0,0,0,0,0,0,0,0,0,0,0,0,0,0,0,0,0,0,0,0,0,0,0,0,0,0,0,0,0,0,0,0,0,0,0,0,0,0,0,0,0,0,0,0,0,0,0,0,0,0,0,0,0,0,0,0,0,0,0,0,0,0,0,0,0,0,0,0,0,0,0,0,0,0,0,0,0,0,0,0,0,0,0,0,0,0,0,0,0,0,0,0,0,0,0],"sum_hessian":[4.1446716E2,2.399785E2,1.7448865E2,7.2481224E1,1.6749728E2,8.656296E1,8.79257E1,1.9136024E1,5.33452E1,1.4980415E2,1.7693127E1,6.0265274E1,2.629768E1,2.6769629E1,6.115607E1,1.4314678E1,4.8213463E0,1.0833828E2,4.1465874E1,4.2627897E0,1.3430337E1,1.3963536E1,4.630174E1,2.4048398E0,2.389284E1,4.336187E0,2.2433441E1,2.6045197E1,3.5110874E1,2.0618155E0,1.2252863E1,2.5653915E0,2.2559547E0,1.3227455E1,9.5110825E1,2.6642473E1,1.48234005E1,1.8547575E0,2.4080324E0,2.7122922E0,1.0718044E1,8.469385E0,5.494151E0,4.460795E1,1.69379E0,1.3829415E0,1.0218983E0,1.2774633E0,2.2615377E1,1.012422E0,3.3237653E0,1.5409673E0,2.0892473E1,5.155155E0,2.0890041E1,2.9712643E1,5.398232E0,1.0309078E0,1.0309078E0,1.084054E0,1.1719009E0,2.1762148E1,7.334868E1,1.2807516E1,2.0158842E0,1.3590549E0,1.0489775E0,1.4749094E0,1.2373829E0,7.451898E0,3.2661467E0,5.895367E0,2.5740182E0,4.487721E0,1.00643E0,2.8700186E1,1.59077635E1,1.0163656E1,1.0728818E1,3.4094067E0,1.7457484E0,1.1994418E1,8.895623E0,1.8386026E1,1.1326615E1,1.0260352E0,4.3721967E0,1.4363977E0,2.032575E1,5.5384686E1,1.7963993E1,4.5194244E0,8.288092E0,1.0050044E0,1.0108799E0,1.8217076E0,1.4444389E0,3.2803066E0,2.6150603E0,1.6880445E0,2.701214E1,7.580533E0,8.32723E0,3.8208282E0,6.342828E0,2.758335E0,7.9704833E0,2.2787256E0,1.1306809E0,1.0879711E0,1.0906447E1,4.50384E0,4.391783E0,7.790862E0,1.0595164E1,7.508468E0,3.8181472E0,1.8357044E0,1.8490046E1,3.0926582E1,2.4458105E1,6.7563353E0,1.1207657E1,1.2562306E0,3.2631936E0,1.5528077E0,1.7274989E0,1.3975015E1,1.3037126E1,3.417224E0,4.163309E0,2.4121835E0,5.9150467E0,1.3636727E0,2.4571555E0,4.403244E0,1.9395837E0,1.7002089E0,1.0581261E0,3.8396902E0,4.130793E0,1.2670163E0,1.0117095E0,2.4675195E0,1.924264E0,1.1542896E0,6.6365724E0,1.865944E0,8.72922E0,5.5897627E0,1.9187053E0,1.4506902E0,2.3674572E0,2.9817154E1,1.1094294E0,1.2207183E0,2.3237387E1,1.5787349E0,5.1776004E0,1.1420605E0,1.0065597E1,1.0832478E0,2.179946E0,1.2611636E1,1.363379E0,1.1464389E1,1.5727367E0,1.6642E0,1.7530241E0,1.0660963E0,1.3460872E0,2.987375E0,2.9276714E0,1.2957733E0,1.1613822E0,1.4273776E0,2.4123127E0,2.3214893E0,1.8093038E0,1.0021539E0,1.4653655E0,3.115709E0,5.6135116E0,2.353058E0,3.2367048E0],"tree_param":{"num_deleted":"0","num_feature":"9","num_nodes":"185","size_leaf_vector":"1"}},{"base_weights":[-5.511444E-1,-7.77117E-1,-2.4777722E-1,-5.6116104E-1,-9.470338E-1,-9.990768E-3,-7.499058E-1,-6.9350827E-1,-2.116164E-1,-1.0270009E0,-7.3205173E-1,4.7475138E-1,-1.980532E-1,5.506074E-1,-8.382947E-1,1.7609604E-1,-7.3083603E-1,1.0057582E0,-3.507813E-1,-1.0819413E-1,-7.0681065E-1,-8.476831E-1,2.8387105E-2,-8.0938333E-1,7.364659E-1,-3.572979E-1,2.108237E-1,1.1686963E-1,-3.0921716E-2,8.514153E-2,-9.062585E-1,9.259233E-2,-6.7136675E-2,-8.282966E-1,-4.849416E-1,-1.9831486E-2,1.8432571E-1,-7.2569984E-1,5.267198E-2,-3.546769E-1,-9.204772E-1,-2.714863E-1,-9.638416E-2,1.3270573E-1,-5.2036643E-1,-9.335918E-2,-9.323957E-3,-1.6577097E-2,1.3160503E0,-1.5779398E-1,-7.551016E-1,1.199338E0,2.7203582E-2,-9.6392065E-1,-3.2821444E-1,-6.7297614E-1,-1.0026293E0,4.3673658E-1,-7.972233E-1,-1.5642177E-1,-8.72061E-1,9.970031E-1,-6.7011356E-1,-7.601415E-1,4.540246E-1,-1.995247E-2,-1.00839876E-1,-6.185019E-1,8.0577314E-2,3.967745E-2,-8.634446E-2,1.473295E-1,-3.0493665E-1,1.508183E0,-3.160825E-2,-5.7433385E-1,1.6722362E-1,2.510244E-2,-8.7578183E-1,1.8464649E-1,-1.7752342E-2,7.867041E-1,-1.4491874E-1,-1.0828338E0,-7.458202E-1,5.7356276E-2,-8.883282E-2,-7.4820083E-1,2.4747778E-2,-3.547528E-2,-1.0407714E-1,8.1728846E-1,-6.339649E-2,-8.972678E-1,3.792064E-2,-7.178333E-2,4.784558E-2,-9.415771E-2,-1.0688405E-2,-2.8609353E-1,1.9264145E0,2.742814E-2,-8.631418E-1,-1.1650382E-2,-8.897116E-2,-1.6250065E-2,8.894829E-2,1.2389943E-3,-8.780271E-2,1.5025638E-1,-9.330451E-2,1.6896737E0,3.3283692E-3,-8.678853E-1,-1.6829781E-1,1.3238162E0,-3.6526778E-1,-9.5597476E-1,-2.1616502E-1,-3.8046937E-2,1.7841889E-1,-8.1666476E-1,1.7446269E-1,-4.431585E-2,-1.11444704E-1,7.401315E-2,-8.8303834E-1,-5.8063626E-1,-1.02578975E-1,-5.3144086E-2,1.8599032E-1,-5.5180156E-1,-1.0426682E-1,-6.9951065E-2,3.523926E-2,2.2581105E-1,6.7823075E-2,-9.708005E-2,-1.206955E-2,7.5360215E-1,-3.262946E-1,2.536555E-2,1.9114723E0,-1.0272082E-1,-1.160673E-2,1.6510555E-1,-7.4845076E-1,1.7827542E0,-9.574035E-3,-8.028685E-1,1.1174587E0,-2.6015205E-2,-1.004664E0,3.964954E-2,-6.631667E-2,-1.4422178E-2,-9.367609E-2,1.2507734E0,-1.6576582E-1,-9.784682E-1,2.4563989E-2,-7.243205E-2,1.9386819E-2,5.722797E-2,-6.653845E-2,-9.244182E-2,3.348529E-2,1.1329669E-1,-1.0606224E-2,3.0706769E-2,-5.9557017E-2,2.1487783E-1,9.1978185E-2,-8.35202E-2,-1.0731555E-2,2.271593E-1,8.057618E-2,3.879258E-2,-9.2479266E-2,2.0437157E-1,1.288833E-2,-4.0662345E-2,-1.0616424E-1,2.0049693E-2,1.8200932E-1,9.224789E-2,-5.766364E-2,-1.0781304E-1,-4.1989118E-2],"categories":[],"categories_nodes":[],"categories_segments":[],"categories_sizes":[],"default_left":[0,0,0,0,0,0,0,0,0,0,0,0,0,0,0,0,0,0,0,0,0,0,0,0,0,0,0,0,0,0,0,0,0,0,0,0,0,0,0,0,0,0,0,0,0,0,0,0,0,0,0,0,0,0,0,0,0,0,0,0,0,0,0,0,0,0,0,0,0,0,0,0,0,0,0,0,0,0,0,0,0,0,0,0,0,0,0,0,0,0,0,0,0,0,0,0,0,0,0,0,0,0,0,0,0,0,0,0,0,0,0,0,0,0,0,0,0,0,0,0,0,0,0,0,0,0,0,0,0,0,0,0,0,0,0,0,0,0,0,0,0,0,0,0,0,0,0,0,0,0,0,0,0,0,0,0,0,0,0,0,0,0,0,0,0,0,0,0,0,0,0,0,0,0,0,0,0,0,0,0,0,0,0,0,0,0,0,0,0],"id":2,"left_children":[1,3,5,7,9,11,13,15,17,19,21,23,25,27,29,31,33,35,37,-1,39,41,43,45,47,49,51,-1,-1,-1,53,-1,-1,55,57,-1,-1,59,61,63,65,67,-1,-1,69,-1,-1,71,73,75,77,79,81,83,85,87,89,91,93,95,97,99,101,103,105,-1,-1,107,-1,-1,-1,-1,109,111,-1,113,115,-1,117,-1,-1,119,121,123,125,-1,-1,127,-1,-1,-1,129,-1,131,-1,-1,-1,-1,-1,133,135,-1,137,-1,-1,-1,-1,-1,-1,139,-1,141,-1,143,145,147,149,151,153,-1,-1,155,157,-1,-1,-1,159,161,-1,163,-1,165,-1,-1,-1,-1,-1,-1,-1,167,169,-1,171,-1,-1,-1,173,175,-1,177,179,-1,181,-1,-1,-1,-1,183,185,187,-1,-1,-1,-1,-1,-1,-1,-1,-1,-1,-1,-1,-1,-1,-1,-1,-1,-1,-1,-1,-1,-1,-1,-1,-1,-1,-1,-1,-1],"loss_changes":[2.7091423E1,7.821274E0,2.045428E1,4.6037636E0,1.4132614E0,1.0788402E1,6.790823E0,2.5322914E0,5.3745737E0,8.063965E-1,3.3326054E0,1.171533E1,5.624556E0,2.5443468E0,6.7378235E0,3.0703328E0,1.3044815E0,3.692767E0,4.1740675E0,0E0,8.746877E-1,1.9264698E0,4.919351E0,4.535818E-1,1.2245798E1,4.7782574E0,4.4176555E0,0E0,0E0,0E0,1.3644714E0,0E0,0E0,6.675682E-1,6.8588924E0,0E0,0E0,1.050067E0,1.0293593E1,2.8554072E0,3.8886404E-1,3.0692081E0,0E0,0E0,1.881123E0,0E0,0E0,6.1067386E0,5.4436054E0,5.831102E0,2.6903458E0,3.729323E0,2.9508257E0,3.6824417E-1,3.5857809E0,2.2109833E0,1.5751839E-1,3.113927E0,2.3704739E0,1.8158201E0,4.9027443E-1,8.321695E0,1.8019655E0,3.5277414E-1,9.989836E-1,0E0,0E0,9.551685E-1,0E0,0E0,0E0,0E0,3.531576E0,3.7834015E0,0E0,2.0938344E0,1.5615318E1,0E0,7.6614475E-1,0E0,0E0,5.5276527E0,4.119146E0,5.4706573E-2,4.570525E0,0E0,0E0,6.740227E-1,0E0,0E0,0E0,4.760807E0,0E0,2.3814106E-1,0E0,0E0,0E0,0E0,0E0,1.1988481E0,8.652592E-2,0E0,4.7193623E-1,0E0,0E0,0E0,0E0,0E0,0E0,2.4709988E0,0E0,3.576851E0,0E0,1.1584091E0,1.0868181E1,5.357771E0,1.2321737E1,2.8425026E-1,1.1627536E0,0E0,0E0,3.6147165E-1,5.1093946E0,0E0,0E0,0E0,2.1836739E0,2.2910328E0,0E0,1.8250828E0,0E0,2.5962064E0,0E0,0E0,0E0,0E0,0E0,0E0,0E0,1.3324542E0,1.039305E0,0E0,5.871353E-1,0E0,0E0,0E0,3.3349514E-1,1.0675144E0,0E0,2.4170818E0,3.79348E0,0E0,6.929493E-2,0E0,0E0,0E0,0E0,1.6275754E0,5.474637E0,4.8456764E-1,0E0,0E0,0E0,0E0,0E0,0E0,0E0,0E0,0E0,0E0,0E0,0E0,0E0,0E0,0E0,0E0,0E0,0E0,0E0,0E0,0E0,0E0,0E0,0E0,0E0,0E0,0E0,0E0,0E0],"parents":[2147483647,0,0,1,1,2,2,3,3,4,4,5,5,6,6,7,7,8,8,9,9,10,10,11,11,12,12,13,13,14,14,15,15,16,16,17,17,18,18,20,20,21,21,22,22,23,23,24,24,25,25,26,26,30,30,33,33,34,34,37,37,38,38,39,39,40,40,41,41,44,44,47,47,48,48,49,49,50,50,51,51,52,52,53,53,54,54,55,55,56,56,57,57,58,58,59,59,60,60,61,61,62,62,63,63,64,64,67,67,72,72,73,73,75,75,76,76,78,78,81,81,82,82,83,83,84,84,87,87,91,91,93,93,99,99,100,100,102,102,109,109,111,111,113,113,114,114,115,115,116,116,117,117,118,118,121,121,122,122,126,126,127,127,129,129,131,131,139,139,140,140,142,142,146,146,147,147,149,149,150,150,152,152,157,157,158,158,159,159],"right_children":[2,4,6,8,10,12,14,16,18,20,22,24,26,28,30,32,34,36,38,-1,40,42,44,46,48,50,52,-1,-1,-1,54,-1,-1,56,58,-1,-1,60,62,64,66,68,-1,-1,70,-1,-1,72,74,76,78,80,82,84,86,88,90,92,94,96,98,100,102,104,106,-1,-1,108,-1,-1,-1,-1,110,112,-1,114,116,-1,118,-1,-1,120,122,124,126,-1,-1,128,-1,-1,-1,130,-1,132,-1,-1,-1,-1,-1,134,136,-1,138,-1,-1,-1,-1,-1,-1,140,-1,142,-1,144,146,148,150,152,154,-1,-1,156,158,-1,-1,-1,160,162,-1,164,-1,166,-1,-1,-1,-1,-1,-1,-1,168,170,-1,172,-1,-1,-1,174,176,-1,178,180,-1,182,-1,-1,-1,-1,184,186,188,-1,-1,-1,-1,-1,-1,-1,-1,-1,-1,-1,-1,-1,-1,-1,-1,-1,-1,-1,-1,-1,-1,-1,-1,-1,-1,-1,-1,-1],"split_conditions":[3.8E1,1E0,2E0,2.957E1,3.2E1,4.2E1,2.161E1,1.0131578E0,3.011E1,3E0,3.77E1,2.3E2,1.5461539E0,4.1E1,2.3636363E0,5E0,4.4444447E0,3E1,2.87E2,-1.0819413E-1,1.5025641E0,1.2073171E0,3.906E1,3.223E1,1.4090909E0,3.111E1,1.5780488E0,1.1686963E-1,-3.0921716E-2,8.514153E-2,4E0,9.259233E-2,-6.7136675E-2,1.6475E0,4.8333335E0,-1.9831486E-2,1.8432571E-1,1.4090909E0,3.34E2,2.657E1,2.2E0,1.1666666E0,-9.638416E-2,1.3270573E-1,3.4E1,-9.335918E-2,-9.323957E-3,9.5454544E-1,1.7804878E0,6.5128207E0,3.1E0,7.6136365E0,2.18E2,1.4622222E0,4.4E1,1.595E0,4.785714E0,3.12E2,3.7E1,3.419E1,2.4071429E0,7.568182E0,2.4E1,5.097561E0,2.7E1,-1.995247E-2,-1.00839876E-1,2.52E2,8.0577314E-2,3.967745E-2,-8.634446E-2,1.473295E-1,1E0,5.571429E0,-3.160825E-2,4.2E0,3E2,2.510244E-2,1.4825E0,1.8464649E-1,-1.7752342E-2,4.9E1,6.780488E0,1.0534884E0,1.4744186E0,5.7356276E-2,-8.883282E-2,3.857143E0,2.4747778E-2,-3.547528E-2,-1.0407714E-1,2.74E2,-6.339649E-2,2.8E1,3.792064E-2,-7.178333E-2,4.784558E-2,-9.415771E-2,-1.0688405E-2,3.795E1,7.9736843E0,2.742814E-2,5.714286E0,-1.1650382E-2,-8.897116E-2,-1.6250065E-2,8.894829E-2,1.2389943E-3,-8.780271E-2,1.2404761E0,-9.330451E-2,2.192E1,3.3283692E-3,2.578E1,4.375E0,2.792E1,5.2E1,3.375E0,1E0,-3.8046937E-2,1.7841889E-1,4.5E1,7.2954545E0,-4.431585E-2,-1.11444704E-1,7.401315E-2,5.3E1,3.7692308E0,-1.02578975E-1,5.395349E0,1.8599032E-1,2.5E1,-1.0426682E-1,-6.9951065E-2,3.523926E-2,2.2581105E-1,6.7823075E-2,-9.708005E-2,-1.206955E-2,6.681818E0,4.142857E0,2.536555E-2,3.43E2,-1.0272082E-1,-1.160673E-2,1.6510555E-1,6.2E0,1.295E0,-9.574035E-3,6.780488E0,5.3E1,-2.6015205E-2,1.0534884E0,3.964954E-2,-6.631667E-2,-1.4422178E-2,-9.367609E-2,4.5E1,4.6E1,9.233334E0,2.4563989E-2,-7.243205E-2,1.9386819E-2,5.722797E-2,-6.653845E-2,-9.244182E-2,3.348529E-2,1.1329669E-1,-1.0606224E-2,3.0706769E-2,-5.9557017E-2,2.1487783E-1,9.1978185E-2,-8.35202E-2,-1.0731555E-2,2.271593E-1,8.057618E-2,3.879258E-2,-9.2479266E-2,2.0437157E-1,1.288833E-2,-4.0662345E-2,-1.0616424E-1,2.0049693E-2,1.8200932E-1,9.224789E-2,-5.766364E-2,-1.0781304E-1,-4.1989118E-2],"split_indices":[0,1,1,4,0,0,4,6,4,1,4,3,6,0,7,7,7,0,3,0,6,6,4,4,6,4,6,0,0,0,1,0,0,6,7,0,0,6,3,4,7,6,0,0,0,0,0,6,6,5,7,5,3,6,0,6,5,3,0,4,6,5,0,5,0,0,0,3,0,0,0,0,1,7,0,7,3,0,6,0,0,0,5,6,6,0,0,7,0,0,0,3,0,0,0,0,0,0,0,4,5,0,7,0,0,0,0,0,0,6,0,4,0,4,7,4,0,7,1,0,0,0,5,0,0,0,0,7,0,5,0,0,0,0,0,0,0,0,0,5,7,0,3,0,0,0,5,6,0,5,0,0,6,0,0,0,0,0,0,5,0,0,0,0,0,0,0,0,0,0,0,0,0,0,0,0,0,0,0,0,0,0,0,0,0,0,0,0,0],"split_type":[0,0,0,0,0,0,0,0,0,0,0,0,0,0,0,0,0,0,0,0,0,0,0,0,0,0,0,0,0,0,0,0,0,0,0,0,0,0,0,0,0,0,0,0,0,0,0,0,0,0,0,0,0,0,0,0,0,0,0,0,0,0,0,0,0,0,0,0,0,0,0,0,0,0,0,0,0,0,0,0,0,0,0,0,0,0,0,0,0,0,0,0,0,0,0,0,0,0,0,0,0,0,0,0,0,0,0,0,0,0,0,0,0,0,0,0,0,0,0,0,0,0,0,0,0,0,0,0,0,0,0,0,0,0,0,0,0,0,0,0,0,0,0,0,0,0,0,0,0,0,0,0,0,0,0,0,0,0,0,0,0,0,0,0,0,0,0,0,0,0,0,0,0,0,0,0,0,0,0,0,0,0,0,0,0,0,0,0,0],"sum_hessian":[3.9700043E2,2.266279E2,1.7037253E2,1.0168887E2,1.24939026E2,1.1631205E2,5.4060474E1,7.304717E1,2.8641703E1,8.831227E1,3.662675E1,3.208545E1,8.42266E1,3.1075807E0,5.0952892E1,2.8534834E0,7.019369E1,2.299473E0,2.634223E1,7.334773E1,1.4964541E1,3.1692848E1,4.9339023E0,5.077829E0,2.700762E1,6.070864E1,2.351796E1,1.5989449E0,1.5086356E0,1.524458E0,4.9428436E1,1.4648315E0,1.388652E0,4.8573147E1,2.1620539E1,1.25638E0,1.0430931E0,1.323996E1,1.3102269E1,6.6556435E0,8.308898E0,5.8770957E0,2.5815752E1,1.0442609E0,3.8896413E0,4.068541E0,1.0092876E0,1.2168596E1,1.4839025E1,4.1361805E1,1.9346836E1,2.8176398E0,2.070032E1,4.433799E1,5.0904436E0,2.8257566E1,2.0315582E1,5.3707128E0,1.6249826E1,3.130906E0,1.0109054E1,5.5160584E0,7.5862107E0,4.4730196E0,2.1826236E0,1.2585117E0,7.0503864E0,4.7672777E0,1.1098181E0,1.0162952E0,2.873346E0,1.306914E0,1.0861682E1,1.3344115E1,1.4949089E0,1.7792278E1,2.3569525E1,1.9563582E0,1.7390478E1,1.6847409E0,1.1328989E0,3.1648054E0,1.7535513E1,2.612774E1,1.8210249E1,1.9411696E0,3.149274E0,2.6295673E1,1.9618919E0,1.7022483E0,1.8613335E1,4.1370053E0,1.2337074E0,1.5194932E1,1.0548931E0,1.5922459E0,1.5386602E0,9.055802E0,1.0532511E0,2.6079028E0,2.908156E0,1.2159938E0,6.370217E0,1.0678158E0,3.4052038E0,1.162945E0,1.0196786E0,1.6670434E0,3.1002343E0,6.7388134E0,4.122869E0,1.1752336E1,1.5917795E0,9.66635E0,8.125929E0,6.961906E0,1.6607618E1,1.5104821E1,2.2856572E0,1.7433978E0,1.4214076E0,5.1489177E0,1.2386596E1,1.9377009E0,2.419004E1,1.1680002E0,1.704225E1,1.8325394E1,7.970281E0,2.7718985E0,1.3651068E0,5.9212637E0,9.273669E0,1.5249362E0,1.0829666E0,1.6583453E0,1.2498106E0,5.2948627E0,1.0753541E0,2.7172384E0,4.021575E0,1.8591356E0,9.8932E0,7.6738353E0,1.9925147E0,1.5183868E0,6.607542E0,5.0676866E0,1.8942194E0,1.3177136E1,3.430482E0,1.4026394E0,1.3702182E1,1.0118309E0,1.2738262E0,1.1137406E0,4.035177E0,2.3322532E0,1.0054342E1,1.5836368E1,1.2058817E0,1.551237E1,2.8130233E0,1.4034736E0,1.3684249E0,4.139181E0,1.7820826E0,1.6646992E0,1.0525391E0,1.1578504E0,2.8637245E0,7.041441E0,2.851759E0,5.5534225E0,1.0541192E0,2.4944828E0,2.573204E0,1.0212467E0,1.21558895E1,1.2200284E0,2.2104535E0,1.8996881E0,1.1802494E1,1.2951466E0,1.0371066E0,2.4143739E0,7.6399684E0,1.2649319E1,3.187049E0],"tree_param":{"num_deleted":"0","num_feature":"9","num_nodes":"189","size_leaf_vector":"1"}},{"base_weights":[-5.1946026E-1,-2.5100285E-1,-7.5350803E-1,-6.68915E-1,-1.6842453E-1,-9.1905504E-1,-5.153004E-1,-3.5537317E-1,-1.05624095E-1,-6.236734E-1,-7.228856E-2,6.319134E-2,-9.414402E-1,4.3665493E-1,-6.074356E-1,-9.186182E-2,-1.3308959E-1,3.9802596E-2,-7.078146E-1,-1.7943542E-1,7.636136E-1,-9.697901E-1,1.7039421E-1,-6.57321E-2,7.554534E-1,-3.9678702E-1,-8.60678E-1,1.7441414E-1,-4.347609E-1,-3.81973E-1,-8.8335407E-1,6.516079E-1,-2.2502775E-1,1.7692083E-1,1.3388345E0,-9.855931E-1,3.744198E-2,-7.0250876E-2,1.07825615E-1,-3.1957425E-2,1.1449469E0,-6.997996E-1,4.6334794E-1,-8.970924E-1,-2.869523E-1,1.2983324E-1,-6.8796784E-1,-8.924928E-2,-5.324787E-3,-1.0399562E-1,-4.4059563E-1,1.38347E0,-4.7697857E-1,3.9283854E-1,-2.879013E-1,8.111998E-1,-8.3783284E-2,2.3028111E-1,3.4453675E-1,-1.0058875E0,-4.0492794E-1,1.7021857E-1,5.761374E-1,-7.7609164E-1,-8.083E-2,1.0979186E0,-3.2961866E-1,-9.5693195E-1,-5.016752E-1,-6.8019204E-2,2.7163127E-2,1.23418115E-1,-5.5551887E-1,2.9674847E-2,-8.743519E-1,8.277719E-2,-3.9416692E-1,-7.016483E-1,3.796215E-2,-1.0409436E-2,1.9538294E-1,-6.1197586E-2,-9.628134E-3,-8.019387E-2,8.4005594E-1,-8.828928E-1,-2.0379384E-1,-9.935913E-2,1.8302143E-1,-2.4467325E-1,1.0919126E-1,-2.5838286E-2,-1.0131711E-1,-8.205081E-2,2.0173119E-1,-6.4993314E-2,1.3916092E-1,-8.410747E-1,-2.0190477E-1,1.2646218E-1,-8.355416E-2,1.9480104E0,5.0501183E-2,-8.697105E-2,5.3811647E-2,-3.674435E-1,-1.0157903E-1,7.460562E-2,-9.2552595E-2,-1.2591E-2,-6.929087E-2,-9.735113E-2,-1.7594496E-2,-8.682049E-2,6.1419275E-2,-2.1547252E-2,-8.2220994E-2,-4.2699646E-2,1.3286136E0,-1.0240588E-1,-1.7009722E-1,-7.4925286E-1,-8.864442E-2,3.7166715E-2,-4.0424112E-2,-6.724664E-2,3.673808E-2,-5.8650203E-2,8.985598E-2,-9.2363054E-1,-2.196231E-1,4.493225E-2,-7.3354274E-2,5.0931927E-2,2.6390955E-1,-6.947255E-2,6.814651E-2,-7.450725E-2,3.263923E-2,2.206933E-2,2.1565084E-1,3.6640305E-2,-6.0735326E-2,-8.506117E-2,1.8879669E-2,7.7569275E-3,-4.5495596E-2,-9.562114E-2,-1.8057665E-2,2.7238432E-2,-7.001417E-2],"categories":[],"categories_nodes":[],"categories_segments":[],"categories_sizes":[],"default_left":[0,0,0,0,0,0,0,0,0,0,0,0,0,0,0,0,0,0,0,0,0,0,0,0,0,0,0,0,0,0,0,0,0,0,0,0,0,0,0,0,0,0,0,0,0,0,0,0,0,0,0,0,0,0,0,0,0,0,0,0,0,0,0,0,0,0,0,0,0,0,0,0,0,0,0,0,0,0,0,0,0,0,0,0,0,0,0,0,0,0,0,0,0,0,0,0,0,0,0,0,0,0,0,0,0,0,0,0,0,0,0,0,0,0,0,0,0,0,0,0,0,0,0,0,0,0,0,0,0,0,0,0,0,0,0,0,0,0,0,0,0,0,0,0,0,0,0,0,0,0,0],"id":3,"left_children":[1,3,5,7,9,11,13,15,-1,17,19,-1,21,23,25,-1,27,-1,29,31,33,35,37,-1,39,41,43,-1,45,47,49,51,53,55,57,59,-1,-1,-1,-1,61,63,65,67,69,71,73,-1,75,-1,77,79,81,83,85,87,-1,-1,89,91,93,-1,95,97,99,101,103,105,107,-1,-1,-1,109,-1,111,-1,113,115,-1,-1,-1,-1,-1,-1,117,119,121,123,-1,125,-1,-1,-1,-1,127,-1,-1,129,131,-1,-1,133,135,-1,-1,137,-1,-1,-1,-1,-1,-1,-1,-1,-1,-1,-1,-1,139,-1,141,143,145,-1,-1,-1,-1,-1,-1,147,149,-1,-1,-1,-1,-1,-1,-1,-1,-1,-1,-1,-1,-1,-1,-1,-1,-1,-1,-1,-1],"loss_changes":[2.378424E1,6.0719624E0,7.54496E0,3.1746845E0,6.562581E0,4.715637E0,7.777363E0,2.0890102E0,0E0,2.533414E0,1.1402901E1,0E0,3.8658218E0,3.335395E0,3.8465614E0,0E0,8.592267E0,0E0,1.0673342E0,4.4017277E0,4.650384E0,2.8041E0,3.7448661E0,0E0,3.199889E0,1.1978153E1,4.695053E-1,0E0,1.9075713E0,1.987411E0,5.9565544E-1,5.69617E0,4.2777905E0,6.035753E0,6.0693808E0,9.3109894E-1,0E0,0E0,0E0,0E0,6.632204E-1,1.5175152E0,6.526085E0,2.829647E-1,9.6387017E-1,4.3028197E0,1.9001751E0,0E0,2.5834768E0,0E0,1.4882032E0,3.5591564E0,1.0256672E-1,6.190348E0,4.7183895E0,5.404745E0,0E0,0E0,2.337099E0,3.3203125E-1,1.5544912E0,0E0,4.98197E0,9.374523E-1,5.9188166E0,6.1661234E0,3.3804953E0,5.6033516E-1,4.043766E0,0E0,0E0,0E0,1.2752223E-1,0E0,3.6682463E-1,0E0,3.1278358E0,9.7135305E-2,0E0,0E0,0E0,0E0,0E0,0E0,5.520118E0,1.015441E0,5.401697E0,7.1334887E-1,0E0,1.1491517E0,0E0,0E0,0E0,0E0,2.1980782E0,0E0,0E0,1.1486454E0,1.8297367E0,0E0,0E0,2.490717E0,2.4382503E0,0E0,0E0,1.2937082E0,0E0,0E0,0E0,0E0,0E0,0E0,0E0,0E0,0E0,0E0,0E0,0E0,5.043688E0,0E0,9.6232474E-1,1.5906763E0,4.481071E0,0E0,0E0,0E0,0E0,0E0,0E0,3.827343E-1,1.2311984E0,0E0,0E0,0E0,0E0,0E0,0E0,0E0,0E0,0E0,0E0,0E0,0E0,0E0,0E0,0E0,0E0,0E0,0E0,0E0,0E0],"parents":[2147483647,0,0,1,1,2,2,3,3,4,4,5,5,6,6,7,7,9,9,10,10,12,12,13,13,14,14,16,16,18,18,19,19,20,20,21,21,22,22,24,24,25,25,26,26,28,28,29,29,30,30,31,31,32,32,33,33,34,34,35,35,40,40,41,41,42,42,43,43,44,44,45,45,46,46,48,48,50,50,51,51,52,52,53,53,54,54,55,55,58,58,59,59,60,60,62,62,63,63,64,64,65,65,66,66,67,67,68,68,72,72,74,74,76,76,77,77,84,84,85,85,86,86,87,87,89,89,94,94,97,97,98,98,101,101,102,102,105,105,118,118,120,120,121,121,122,122,129,129,130,130],"right_children":[2,4,6,8,10,12,14,16,-1,18,20,-1,22,24,26,-1,28,-1,30,32,34,36,38,-1,40,42,44,-1,46,48,50,52,54,56,58,60,-1,-1,-1,-1,62,64,66,68,70,72,74,-1,76,-1,78,80,82,84,86,88,-1,-1,90,92,94,-1,96,98,100,102,104,106,108,-1,-1,-1,110,-1,112,-1,114,116,-1,-1,-1,-1,-1,-1,118,120,122,124,-1,126,-1,-1,-1,-1,128,-1,-1,130,132,-1,-1,134,136,-1,-1,138,-1,-1,-1,-1,-1,-1,-1,-1,-1,-1,-1,-1,140,-1,142,144,146,-1,-1,-1,-1,-1,-1,148,150,-1,-1,-1,-1,-1,-1,-1,-1,-1,-1,-1,-1,-1,-1,-1,-1,-1,-1,-1,-1],"split_conditions":[1E0,2.12E1,2E0,1.991E1,2.7777777E0,1.785E1,2.4E0,6.1E0,-1.05624095E-1,1.5454545E0,8.9E0,6.319134E-2,5.03E2,2.398E1,3.03E2,-9.186182E-2,6.5E0,3.9802596E-2,2.25E0,4.4E0,3.625E0,5.289E1,3.363E1,-6.57321E-2,2.31E2,2.75E2,4.463E1,1.7441414E-1,2E0,2E0,3.1E2,3.363E1,3.1E0,3.2857144E0,4E0,4E0,3.744198E-2,-7.0250876E-2,1.07825615E-1,-3.1957425E-2,2.802E1,3.595E1,2E0,8.7E0,4.625E0,3.142857E0,6.8E0,-8.924928E-2,2.411E1,-1.0399562E-1,2.625E0,4.7777777E0,3.09E2,2.36E1,1E0,3.1E0,-8.3783284E-2,2.3028111E-1,4.75E0,3.1E0,7.2E0,1.7021857E-1,3.192E1,2.66E2,5.8444443E0,2.887E1,2.957E1,2.161E1,9E0,-6.8019204E-2,2.7163127E-2,1.23418115E-1,2.54E2,2.9674847E-2,9.2E0,8.277719E-2,3E2,2.4285715E0,3.796215E-2,-1.0409436E-2,1.9538294E-1,-6.1197586E-2,-9.628134E-3,-8.019387E-2,6.5E0,7.6E0,3.5555556E0,2.8461537E0,1.8302143E-1,2.93E2,1.0919126E-1,-2.5838286E-2,-1.0131711E-1,-8.205081E-2,2.425E1,-6.4993314E-2,1.3916092E-1,4E0,2E0,1.2646218E-1,-8.355416E-2,2.638E1,7.022222E0,-8.697105E-2,5.3811647E-2,7.5526314E0,-1.0157903E-1,7.460562E-2,-9.2552595E-2,-1.2591E-2,-6.929087E-2,-9.735113E-2,-1.7594496E-2,-8.682049E-2,6.1419275E-2,-2.1547252E-2,-8.2220994E-2,-4.2699646E-2,2.75E2,-1.0240588E-1,2.98E2,3.734E1,3.21E2,3.7166715E-2,-4.0424112E-2,-6.724664E-2,3.673808E-2,-5.8650203E-2,8.985598E-2,6.866667E0,2.305E1,4.493225E-2,-7.3354274E-2,5.0931927E-2,2.6390955E-1,-6.947255E-2,6.814651E-2,-7.450725E-2,3.263923E-2,2.206933E-2,2.1565084E-1,3.6640305E-2,-6.0735326E-2,-8.506117E-2,1.8879669E-2,7.7569275E-3,-4.5495596E-2,-9.562114E-2,-1.8057665E-2,2.7238432E-2,-7.001417E-2],"split_indices":[1,4,8,4,7,4,7,2,0,7,2,0,3,4,3,0,2,0,7,2,7,4,4,0,3,3,4,0,8,7,3,4,7,7,7,1,0,0,0,0,4,4,1,2,7,7,2,0,4,0,7,7,3,4,8,7,0,0,7,2,2,0,4,3,5,4,4,4,2,0,0,0,3,0,2,0,3,7,0,0,0,0,0,0,2,2,7,7,0,3,0,0,0,0,4,0,0,1,1,0,0,4,5,0,0,5,0,0,0,0,0,0,0,0,0,0,0,0,3,0,3,4,3,0,0,0,0,0,0,5,4,0,0,0,0,0,0,0,0,0,0,0,0,0,0,0,0,0,0,0,0],"split_type":[0,0,0,0,0,0,0,0,0,0,0,0,0,0,0,0,0,0,0,0,0,0,0,0,0,0,0,0,0,0,0,0,0,0,0,0,0,0,0,0,0,0,0,0,0,0,0,0,0,0,0,0,0,0,0,0,0,0,0,0,0,0,0,0,0,0,0,0,0,0,0,0,0,0,0,0,0,0,0,0,0,0,0,0,0,0,0,0,0,0,0,0,0,0,0,0,0,0,0,0,0,0,0,0,0,0,0,0,0,0,0,0,0,0,0,0,0,0,0,0,0,0,0,0,0,0,0,0,0,0,0,0,0,0,0,0,0,0,0,0,0,0,0,0,0,0,0,0,0,0,0],"sum_hessian":[3.80548E2,1.7821005E2,2.0233795E2,2.8232212E1,1.4997784E2,1.176893E2,8.464865E1,1.6661871E1,1.157034E1,2.5192442E1,1.247854E2,1.2870376E0,1.1640226E2,7.139802E0,7.750885E1,3.8284106E0,1.283346E1,1.6329999E0,2.3559443E1,1.1130371E2,1.3481693E1,1.13632576E2,2.769684E0,1.3715109E0,5.7682915E0,4.3714058E1,3.3794792E1,1.1147891E0,1.1718671E1,9.360396E0,1.4199047E1,5.0974207E0,1.0620629E2,7.321623E0,6.160071E0,1.1257589E2,1.0566914E0,1.5273458E0,1.2423383E0,1.5818353E0,4.186456E0,3.2463917E1,1.1250142E1,3.1247864E1,2.546929E0,3.779186E0,7.939485E0,3.3925164E0,5.9678802E0,9.4927E0,4.706347E0,2.9551992E0,2.1422215E0,9.324565E0,9.688172E1,4.6288943E0,2.6927285E0,2.459528E0,3.7005427E0,1.0806663E2,4.509257E0,1.1082289E0,3.078227E0,2.867562E1,3.7882984E0,6.0355935E0,5.214549E0,2.5907202E1,5.3406615E0,1.3669176E0,1.1800113E0,1.1405509E0,2.6386352E0,1.1693527E0,6.7701325E0,1.5398754E0,4.4280047E0,3.679743E0,1.0266037E0,1.0456123E0,1.9095869E0,1.1329559E0,1.0092655E0,2.3236294E0,7.0009356E0,1.0822711E1,8.605901E1,2.921146E0,1.7077482E0,2.445334E0,1.2552087E0,1.3948109E0,1.0667182E2,2.4668713E0,2.0423853E0,1.310649E0,1.767578E0,2.5342674E1,3.3329442E0,1.118562E0,2.6697366E0,2.857005E0,3.1785884E0,3.2126617E0,2.001887E0,3.0094354E0,2.2897768E1,1.1614375E0,4.179224E0,1.1037439E0,1.5348912E0,5.58349E0,1.1866425E0,3.1065726E0,1.3214321E0,1.2850206E0,2.3947225E0,1.9833118E0,5.0176234E0,8.669146E0,2.1535654E0,1.4040907E1,7.2018105E1,1.0617487E0,1.8593972E0,1.3812262E0,1.0641078E0,1.0326297E0,1.0097556E0,2.1941624E1,3.4010508E0,1.5675795E0,1.7653648E0,1.4906908E0,1.366314E0,1.4110057E0,1.7675827E0,1.9009653E0,1.1084702E0,2.687577E0,2.3300464E0,1.0398008E0,1.1137646E0,1.2755818E1,1.2850889E0,5.0081768E1,2.1936338E1,2.0745138E1,1.1964841E0,1.8944505E0,1.5066003E0],"tree_param":{"num_deleted":"0","num_feature":"9","num_nodes":"151","size_leaf_vector":"1"}},{"base_weights":[-4.8890427E-1,-2.3174386E-1,-7.216714E-1,2.2349195E-3,-3.592982E-1,-8.908189E-1,-4.8519012E-1,1.434721E-1,-7.422737E-1,-6.6567045E-1,-1.3624524E-1,-9.1932267E-1,1.6144975E-1,4.027433E-1,-5.763138E-1,-2.5863811E-2,9.4619364E-1,3.432097E-2,-9.060151E-1,-7.700384E-1,-2.6194608E-1,-5.4732656E-1,1.5847762E-1,-2.4750566E-3,-9.3400997E-1,9.844823E-2,-6.907183E-2,7.4540335E-1,-6.846006E-2,-3.6913234E-1,-8.3222806E-1,-9.751546E-2,1.417492E-1,1.05035186E-1,1.3303198E0,-8.848275E-3,-9.9747434E-2,3.417009E-2,-8.128864E-1,4.703834E-1,-7.1891147E-1,-7.481339E-1,9.172703E-1,-1.7046694E-1,5.8483994E-1,-9.5390064E-1,-3.843261E-1,1.1265149E0,-6.110726E-2,-6.688276E-1,4.3150485E-1,-1.0018066E0,-6.2974E-1,5.059115E-1,-2.2839734E-1,8.128809E-2,-6.746776E-2,1.6292248E0,-1.0115988E-2,-3.3076707E-1,-8.823627E-1,-5.794723E-2,8.992528E-1,-2.2568251E-1,-9.143519E-2,-8.6881965E-1,-3.5798317E-1,1.4122841E-1,-1.43793095E-2,-7.2434443E-1,3.8275185E-1,-3.2908988E-1,9.957046E-1,-7.081019E-1,-9.9010155E-2,-7.9751395E-2,1.8921462E-1,1.5835904E0,1.9979987E-2,1.0137189E-1,-7.326906E-1,9.902035E-1,-3.1035975E-1,-2.6582828E-2,-1.0552459E-1,-2.7312258E-2,-9.568207E-1,3.8467832E-2,1.2221181E0,-6.453757E-1,3.3119714E-1,7.374274E-1,2.2618344E-1,-8.258688E-2,2.8531063E-1,-4.295778E-1,-9.48287E-2,1.3640319E-1,-1.4539041E-2,2.08647E-2,-5.985343E-2,-2.2167012E-1,-9.5086E-2,2.855146E-1,-7.3370177E-1,-2.584998E-1,-8.932123E-1,1.3392884E-1,1.320503E-1,-6.5270346E-1,2.7548581E-2,-4.980693E-2,1.2917619E0,-9.4660245E-2,-1.2734273E-1,-1.12679675E-2,4.0463544E-2,5.8405947E-2,1.9014572E-1,-2.191093E-2,4.2156305E-2,-7.8956544E-1,-2.464907E-1,-2.0060286E-2,1.2716975E0,1.2887844E-1,-7.729669E-2,-6.093797E-1,5.3954375E-1,-1.0282922E-1,-2.964193E-2,8.737615E-1,-3.9877623E-1,-2.1668402E-2,1.5337495E0,-9.2212933E-1,2.7067953E-1,1.5126662E-1,-2.8165913E-1,-1.1463944E-2,1.10999644E-1,8.0805324E-2,-2.7719999E-2,-8.273325E-2,1.7147644E-1,3.9987005E-2,-6.5926485E-2,-2.9592514E-2,8.6666636E-2,-1.0643282E-2,-8.7215625E-2,-5.4027796E-1,3.3635553E-2,-9.388599E-3,-9.926816E-2,-4.6465546E-1,4.8189184E-1,-1.2192401E-2,-7.946687E-2,-6.828018E-2,6.690099E-2,2.3396227E0,3.9318305E-1,1.1829799E-1,-8.754339E-2,-8.417986E-1,-1.0469064E-2,3.7260544E-2,-5.4157436E-1,1.0530233E-2,1.6014216E0,-7.432469E-2,1.27006E-1,-7.573801E-2,-1.0793035E-2,-6.1045706E-2,1.1954979E-1,-6.3073607E-3,1.4493191E-1,6.045149E-2,-7.3013194E-2,2.8105623E-1,4.9896445E-2,-1.0078811E-1,-1.3499056E-2,1.2932527E-1,-7.0262186E-2,-8.9141786E-2,5.636359E-2,-5.9124976E-2,8.573385E-2,-6.808573E-2,-9.778403E-3,1.7981645E-2,-7.936224E-2,8.6191855E-2,-4.0287565E-2,2.7034062E-1,7.267797E-2,-6.337056E-2,7.6758794E-2,-5.0832253E-2,-9.538805E-2,-6.930759E-2,-8.3297035E-3,1.8429703E-1,3.79512E-2],"categories":[],"categories_nodes":[],"categories_segments":[],"categories_sizes":[],"default_left":[0,0,0,0,0,0,0,0,0,0,0,0,0,0,0,0,0,0,0,0,0,0,0,0,0,0,0,0,0,0,0,0,0,0,0,0,0,0,0,0,0,0,0,0,0,0,0,0,0,0,0,0,0,0,0,0,0,0,0,0,0,0,0,0,0,0,0,0,0,0,0,0,0,0,0,0,0,0,0,0,0,0,0,0,0,0,0,0,0,0,0,0,0,0,0,0,0,0,0,0,0,0,0,0,0,0,0,0,0,0,0,0,0,0,0,0,0,0,0,0,0,0,0,0,0,0,0,0,0,0,0,0,0,0,0,0,0,0,0,0,0,0,0,0,0,0,0,0,0,0,0,0,0,0,0,0,0,0,0,0,0,0,0,0,0,0,0,0,0,0,0,0,0,0,0,0,0,0,0,0,0,0,0,0,0,0,0,0,0,0,0,0,0,0,0,0,0,0,0,0,0,0,0,0,0,0,0],"id":4,"left_children":[1,3,5,7,9,11,13,15,17,19,21,23,25,27,29,31,33,-1,35,37,39,41,43,-1,45,-1,-1,47,-1,49,51,-1,53,55,57,-1,-1,-1,59,61,63,65,67,69,71,73,75,77,-1,79,81,83,85,87,89,-1,-1,91,-1,93,95,-1,97,99,-1,101,103,-1,-1,105,107,109,111,113,-1,-1,115,117,-1,119,121,123,125,-1,-1,127,129,131,133,135,137,139,-1,-1,141,143,-1,-1,-1,-1,-1,145,-1,147,149,151,153,-1,155,157,-1,159,161,-1,163,-1,-1,-1,-1,-1,-1,165,167,-1,169,171,-1,173,175,-1,-1,177,179,-1,181,183,185,-1,187,-1,-1,-1,-1,-1,189,-1,-1,-1,-1,-1,-1,191,-1,-1,-1,193,195,-1,-1,-1,-1,197,199,-1,-1,201,-1,-1,203,-1,205,-1,-1,-1,-1,-1,-1,-1,-1,-1,-1,-1,-1,-1,-1,-1,-1,-1,-1,-1,-1,-1,-1,-1,-1,-1,-1,-1,-1,-1,-1,-1,-1,-1,-1,-1,-1],"loss_changes":[2.1779427E1,5.243581E0,7.2468643E0,6.728118E0,7.678917E0,3.4694824E0,6.8871155E0,7.33321E0,2.1244516E0,1.8058014E0,8.210354E0,1.3952713E0,3.324724E0,3.5818949E0,3.6696815E0,7.3580446E0,2.8953428E0,0E0,5.951872E-1,2.0565624E0,4.120407E0,8.986737E0,5.6855826E0,0E0,7.943649E-1,0E0,0E0,4.1764874E0,0E0,1.066555E1,4.940071E-1,0E0,5.4316554E0,2.772938E0,2.88729E0,0E0,0E0,0E0,9.2242813E-1,2.748538E0,5.026448E-1,8.83585E-1,2.2264383E0,7.40351E0,6.925729E0,2.0475006E-1,1.4265428E0,2.0636916E0,0E0,1.6413746E0,5.4414186E0,3.5411835E-1,3.446444E0,6.712724E0,4.938325E0,0E0,0E0,1.3345947E0,0E0,2.1163135E0,5.2054214E-1,0E0,2.0939155E0,6.779113E-1,0E0,7.8078747E-1,2.069861E0,0E0,0E0,7.105222E-1,2.7702632E0,1.393042E0,3.8933172E0,2.1758919E0,0E0,0E0,2.4474925E-1,3.913784E-2,0E0,4.328384E-1,6.2229156E-1,2.7035546E0,1.3355603E0,0E0,0E0,2.7145905E0,2.3292542E-1,5.187641E0,3.8930492E0,3.2770214E0,7.164443E0,1.2994046E0,0E0,0E0,1.2503603E0,1.5234613E0,0E0,0E0,0E0,0E0,0E0,1.1897862E0,0E0,1.4581933E0,3.5342574E-1,9.512907E-1,5.727663E-1,0E0,2.4882271E0,2.2982776E-1,0E0,2.1370242E0,8.192305E0,0E0,6.8994026E0,0E0,0E0,0E0,0E0,0E0,0E0,8.4176826E-1,1.0325981E0,0E0,2.155839E0,4.9022646E0,0E0,2.1787238E-1,3.8932924E0,0E0,0E0,2.7151837E0,3.5609946E0,0E0,7.385545E0,4.9827862E-1,4.4356256E0,0E0,4.0953193E0,0E0,0E0,0E0,0E0,0E0,2.1441133E0,0E0,0E0,0E0,0E0,0E0,0E0,1.5108848E-1,0E0,0E0,0E0,1.1005855E0,2.8114457E0,0E0,0E0,0E0,0E0,5.3798103E-1,2.9516077E0,0E0,0E0,4.1254044E-1,0E0,0E0,1.8439674E-1,0E0,6.7055225E-1,0E0,0E0,0E0,0E0,0E0,0E0,0E0,0E0,0E0,0E0,0E0,0E0,0E0,0E0,0E0,0E0,0E0,0E0,0E0,0E0,0E0,0E0,0E0,0E0,0E0,0E0,0E0,0E0,0E0,0E0,0E0,0E0,0E0,0E0,0E0,0E0],"parents":[2147483647,0,0,1,1,2,2,3,3,4,4,5,5,6,6,7,7,8,8,9,9,10,10,11,11,12,12,13,13,14,14,15,15,16,16,18,18,19,19,20,20,21,21,22,22,24,24,27,27,29,29,30,30,32,32,33,33,34,34,38,38,39,39,40,40,41,41,42,42,43,43,44,44,45,45,46,46,47,47,49,49,50,50,51,51,52,52,53,53,54,54,57,57,59,59,60,60,62,62,63,63,65,65,66,66,69,69,70,70,71,71,72,72,73,73,76,76,77,77,79,79,80,80,81,81,82,82,85,85,86,86,87,87,88,88,89,89,90,90,91,91,94,94,95,95,101,101,103,103,104,104,105,105,106,106,108,108,109,109,111,111,112,112,114,114,121,121,122,122,124,124,125,125,127,127,128,128,131,131,132,132,134,134,135,135,136,136,138,138,144,144,151,151,155,155,156,156,161,161,162,162,165,165,168,168,170,170],"right_children":[2,4,6,8,10,12,14,16,18,20,22,24,26,28,30,32,34,-1,36,38,40,42,44,-1,46,-1,-1,48,-1,50,52,-1,54,56,58,-1,-1,-1,60,62,64,66,68,70,72,74,76,78,-1,80,82,84,86,88,90,-1,-1,92,-1,94,96,-1,98,100,-1,102,104,-1,-1,106,108,110,112,114,-1,-1,116,118,-1,120,122,124,126,-1,-1,128,130,132,134,136,138,140,-1,-1,142,144,-1,-1,-1,-1,-1,146,-1,148,150,152,154,-1,156,158,-1,160,162,-1,164,-1,-1,-1,-1,-1,-1,166,168,-1,170,172,-1,174,176,-1,-1,178,180,-1,182,184,186,-1,188,-1,-1,-1,-1,-1,190,-1,-1,-1,-1,-1,-1,192,-1,-1,-1,194,196,-1,-1,-1,-1,198,200,-1,-1,202,-1,-1,204,-1,206,-1,-1,-1,-1,-1,-1,-1,-1,-1,-1,-1,-1,-1,-1,-1,-1,-1,-1,-1,-1,-1,-1,-1,-1,-1,-1,-1,-1,-1,-1,-1,-1,-1,-1,-1,-1],"split_conditions":[1E0,2E0,2E0,1.7340909E0,3.6E0,5.03E2,2.4E0,1.5975E0,3E0,8.1470585E0,1.3538462E0,3.3E0,1.3076923E1,2.214706E0,3.03E2,5.9E0,2.65E2,3.432097E-2,1.92E2,1.0717949E0,9.025E0,9.1E0,6.2E0,-2.4750566E-3,4E0,9.844823E-2,-6.907183E-2,1.2E1,-6.846006E-2,2.75E2,8.484848E0,-9.751546E-2,1.3302325E0,5.8E0,8E0,-8.848275E-3,-9.9747434E-2,3.417009E-2,2.2E0,7.2E0,1.6421052E0,5.75E0,4.2222223E0,1.604762E0,3.857143E0,2.8461537E0,7.2E0,1.9138889E0,-6.110726E-2,1.0534884E0,2E0,4.7E0,3.63E2,1.258E0,3.12E2,8.128809E-2,-6.746776E-2,6.7E0,-1.0115988E-2,2E0,4.8421054E0,-5.794723E-2,8.6E0,3.142857E0,-9.143519E-2,3.8181818E0,6.142857E0,1.4122841E-1,-1.43793095E-2,5.2E0,5.395349E0,1.515E0,2.33E2,3.02E2,-9.9010155E-2,-7.9751395E-2,3.6923077E0,1.5925E0,1.9979987E-2,9.5454544E-1,4E0,3.7692308E0,7.3E0,-2.6582828E-2,-1.0552459E-1,3.857143E0,4E0,1.0488372E0,3.1666667E0,1.5461539E0,3.28E2,4.285714E0,2.2618344E-1,-8.258688E-2,2.1E0,1.5325E0,-9.48287E-2,1.3640319E-1,-1.4539041E-2,2.08647E-2,-5.985343E-2,1.2404761E0,-9.5086E-2,6.9E0,5.3E0,6.9333334E0,4.1E0,1.3392884E-1,6.7647057E0,3.6923077E0,2.7548581E-2,7E0,7.1136365E0,-9.4660245E-2,7.928571E0,-1.12679675E-2,4.0463544E-2,5.8405947E-2,1.9014572E-1,-2.191093E-2,4.2156305E-2,6.9333334E0,1.3487805E0,-2.0060286E-2,9.3095237E-1,6.6E0,-7.729669E-2,2.0684211E0,6.2E0,-1.0282922E-1,-2.964193E-2,6.1707315E0,6.7E0,-2.1668402E-2,3.8181818E0,9.1E0,2.48E2,1.5126662E-1,3.71E2,-1.1463944E-2,1.10999644E-1,8.0805324E-2,-2.7719999E-2,-8.273325E-2,2.8461537E0,3.9987005E-2,-6.5926485E-2,-2.9592514E-2,8.6666636E-2,-1.0643282E-2,-8.7215625E-2,1.4975E0,3.3635553E-2,-9.388599E-3,-9.926816E-2,5.8139534E0,5.125E0,-1.2192401E-2,-7.946687E-2,-6.828018E-2,6.690099E-2,7.3E0,1.4119048E0,1.1829799E-1,-8.754339E-2,3.4285715E0,-1.0469064E-2,3.7260544E-2,5.822222E0,1.0530233E-2,5.428571E0,-7.432469E-2,1.27006E-1,-7.573801E-2,-1.0793035E-2,-6.1045706E-2,1.1954979E-1,-6.3073607E-3,1.4493191E-1,6.045149E-2,-7.3013194E-2,2.8105623E-1,4.9896445E-2,-1.0078811E-1,-1.3499056E-2,1.2932527E-1,-7.0262186E-2,-8.9141786E-2,5.636359E-2,-5.9124976E-2,8.573385E-2,-6.808573E-2,-9.778403E-3,1.7981645E-2,-7.936224E-2,8.6191855E-2,-4.0287565E-2,2.7034062E-1,7.267797E-2,-6.337056E-2,7.6758794E-2,-5.0832253E-2,-9.538805E-2,-6.930759E-2,-8.3297035E-3,1.8429703E-1,3.79512E-2],"split_indices":[1,8,8,6,7,3,7,6,2,5,6,2,5,6,3,2,3,0,3,6,5,2,2,0,1,0,0,2,0,3,5,0,6,2,2,0,0,0,7,2,6,7,7,6,7,7,2,6,0,6,1,2,3,6,3,0,0,2,0,7,5,0,2,7,0,7,7,0,0,2,5,6,3,3,0,0,7,6,0,6,1,7,2,0,0,7,1,6,7,6,3,7,0,0,7,6,0,0,0,0,0,6,0,2,2,5,7,0,5,7,0,2,5,0,5,0,0,0,0,0,0,5,6,0,6,2,0,6,2,0,0,5,2,0,7,2,3,0,3,0,0,0,0,0,7,0,0,0,0,0,0,6,0,0,0,5,7,0,0,0,0,2,6,0,0,7,0,0,5,0,7,0,0,0,0,0,0,0,0,0,0,0,0,0,0,0,0,0,0,0,0,0,0,0,0,0,0,0,0,0,0,0,0,0,0,0,0],"split_type":[0,0,0,0,0,0,0,0,0,0,0,0,0,0,0,0,0,0,0,0,0,0,0,0,0,0,0,0,0,0,0,0,0,0,0,0,0,0,0,0,0,0,0,0,0,0,0,0,0,0,0,0,0,0,0,0,0,0,0,0,0,0,0,0,0,0,0,0,0,0,0,0,0,0,0,0,0,0,0,0,0,0,0,0,0,0,0,0,0,0,0,0,0,0,0,0,0,0,0,0,0,0,0,0,0,0,0,0,0,0,0,0,0,0,0,0,0,0,0,0,0,0,0,0,0,0,0,0,0,0,0,0,0,0,0,0,0,0,0,0,0,0,0,0,0,0,0,0,0,0,0,0,0,0,0,0,0,0,0,0,0,0,0,0,0,0,0,0,0,0,0,0,0,0,0,0,0,0,0,0,0,0,0,0,0,0,0,0,0,0,0,0,0,0,0,0,0,0,0,0,0,0,0,0,0,0,0],"sum_hessian":[3.6564264E2,1.7466684E2,1.9097581E2,6.197173E1,1.12695114E2,1.097256E2,8.1250206E1,5.276855E1,9.203178E0,4.664372E1,6.605139E1,1.06954765E2,2.77084E0,7.243906E0,7.40063E1,4.4375267E1,8.393283E0,1.0626376E0,8.140541E0,3.6341606E1,1.0302112E1,2.7223206E1,3.8828186E1,1.7710143E0,1.0518375E2,1.3305314E0,1.4403085E0,5.747227E0,1.4966788E0,4.2246803E1,3.1759497E1,5.9363494E0,3.843892E1,3.030513E0,5.36277E0,1.017028E0,7.1235127E0,1.0898383E0,3.525177E1,3.9471204E0,6.354991E0,2.437095E1,2.8522544E0,2.2256876E1,1.6571312E1,1.0080084E2,4.3829074E0,4.6190114E0,1.1282159E0,3.0859919E1,1.1386883E1,1.5136005E1,1.6623491E1,1.91912E1,1.9247719E1,1.5661646E0,1.4643483E0,4.3221326E0,1.0406379E0,5.1657505E0,3.008602E1,1.0429229E0,2.9041975E0,2.415012E0,3.9399788E0,1.7676252E1,6.6946983E0,1.7191966E0,1.1330578E0,1.0967245E1,1.1289631E1,5.201064E0,1.1370248E1,1.5579397E1,8.522144E1,2.3206005E0,2.062307E0,2.6186278E0,2.0003836E0,2.317929E0,2.854199E1,6.304335E0,5.082548E0,1.4290607E0,1.3706944E1,6.2308383E0,1.0392653E1,1.2249849E1,6.94135E0,1.0941463E1,8.306255E0,2.692365E0,1.6297674E0,2.6752768E0,2.490474E0,4.778981E0,2.5307037E1,1.7983446E0,1.105853E0,1.318968E0,1.096044E0,2.4052386E0,1.5271015E1,2.5564017E0,4.1382966E0,3.5912058E0,7.376039E0,1.4427487E0,9.846882E0,3.3358598E0,1.8652046E0,2.692739E0,8.677508E0,1.0597415E1,4.9819818E0,1.0573922E0,1.0049148E0,1.3164595E0,1.3021683E0,1.3162144E0,1.0017146E0,2.499425E1,3.5477405E0,1.2602886E0,5.0440464E0,2.9771752E0,2.105373E0,3.03716E0,3.1936784E0,8.875082E0,1.5175714E0,3.8660202E0,8.383829E0,1.2900175E0,5.6513324E0,8.39775E0,2.543713E0,2.335547E0,5.970709E0,1.0297114E0,1.6626536E0,1.0646136E0,1.4258603E0,2.6493042E0,2.129677E0,1.0293726E0,1.3758659E0,1.5232213E0,1.0331806E0,1.0680789E0,3.0702176E0,2.499135E0,1.0920709E0,1.0314292E0,6.3446097E0,3.5180855E0,6.3287964E0,1.0962042E0,2.2396555E0,1.458488E0,1.234251E0,3.2656453E0,5.4118633E0,1.5993325E0,3.3826492E0,2.301021E1,1.9840395E0,1.0603588E0,2.487382E0,1.4024085E0,3.641638E0,1.8851732E0,1.092002E0,1.9509611E0,1.0861988E0,1.1851921E0,2.008486E0,1.8101127E0,2.0559075E0,1.8768039E0,6.5070252E0,1.7616116E0,3.889721E0,7.3198786E0,1.0778718E0,1.0801523E0,1.4635609E0,3.4369092E0,2.5337996E0,1.0736501E0,1.0560269E0,1.4877867E0,1.0113484E0,1.3421329E0,2.1759524E0,4.4452786E0,1.8835179E0,2.1128983E0,1.1527469E0,1.2609261E0,4.1509376E0,7.1807313E0,1.5829479E1,1.4843287E0,1.0030531E0,2.6161947E0,1.0254432E0],"tree_param":{"num_deleted":"0","num_feature":"9","num_nodes":"207","size_leaf_vector":"1"}},{"base_weights":[-4.6009988E-1,-7.98473E-1,-2.4557635E-1,4.6682286E-1,-8.219553E-1,-5.4623768E-2,-6.9150114E-1,-1.0651887E-2,8.082431E-2,-6.4279306E-1,-9.6533763E-1,-6.240951E-1,2.7856227E-2,2.9980314E-1,-7.7035016E-1,-8.484739E-1,-4.9285293E-1,-1.0296085E-1,-6.222619E-1,-8.928003E-2,-9.565592E-2,-2.4270807E-1,2.0657772E-1,9.3853615E-2,-2.8129083E-1,-9.8581797E-1,-5.40424E-1,-1.8480577E-1,-9.410631E-1,-2.9387045E-1,-9.449669E-1,-8.604863E-1,4.012169E-1,-9.432603E-2,1.2395571E0,-6.086066E-1,5.231245E-2,-1.483019E-1,4.549574E-1,3.8787045E-2,-7.018004E-2,-1.0448891E-1,-5.8748554E-3,-7.364961E-1,-1.6270883E-1,-7.77548E-2,8.115272E-2,-1.0219546E-1,-1.2561372E-1,-4.489472E-1,6.057162E-1,-1.0209097E-1,-1.7618591E-2,-2.435698E-1,-1.0019642E-1,-5.668054E-2,1.08332016E-1,2.0267938E-1,7.5391973E-3,-7.422463E-1,8.490321E-2,2.5515333E-1,-5.9971136E-1,7.8575724E-1,-3.2060915E-1,1.2607538E0,1.9325088E-1,-1.052763E-1,-9.290105E-1,-4.178883E-1,1.2760223E-1,-5.8953013E-2,4.2239256E-2,-5.528804E-1,3.7968603E-1,1.6694126E-1,-4.4658548E-1,2.5538007E-2,-6.2935226E-2,-8.495849E-1,4.469884E-2,-1.8376741E-1,6.4866674E-1,-7.320878E-1,-2.0727554E-1,1.3277274E0,-3.3444412E-2,-8.798024E-1,-1.0154394E-1,2.0600803E0,3.33728E-1,1.0468006E0,3.7156384E-2,-6.95596E-1,1.3817625E-1,-7.7483444E-3,-9.831106E-2,2.5502944E-1,-6.6003275E-1,-2.9402158E-1,-8.9974654E-1,-5.8071803E-2,1.0683352E-1,-5.817197E-2,-9.261745E-3,-1.0372257E-1,-5.4940176E-1,2.3794699E-1,-8.9842066E-2,2.0081604E-1,2.921927E-1,-1.0464576E-2,-8.646512E-2,3.7377454E-2,-6.377196E-2,1.8682738E-1,5.2338578E-2,-3.5288945E-2,-9.6139304E-2,-7.612442E-1,2.6714212E-1,2.4976622E-1,6.349184E-2,9.392812E-1,-5.1889545E-1,4.655335E-2,1.7610377E-1,-7.037602E-2,8.318955E-1,-7.734086E-3,-8.349597E-2,-6.0486536E-2,9.084029E-2,-8.589541E-1,3.5826255E-2,-6.658973E-2,2.8479306E-3,-9.892016E-2,-1.961015E-2,1.2380249E-2,-7.521542E-2,9.575565E-2,-1.8348059E-2,1.22971766E-1,-8.629891E-3,-9.2676654E-2,-3.2005355E-2,5.180142E-2,-5.93747E-2,-1.6514791E-2,1.4040928E-1,-6.607806E-2,-1.1024332E-2,-6.686344E-2,8.923821E-2,1.5139683E-2,-6.621621E-2,1.5650286E-1,-2.8538188E-2,-3.2294955E-2,-9.4673224E-2],"categories":[],"categories_nodes":[],"categories_segments":[],"categories_sizes":[],"default_left":[0,0,0,0,0,0,0,0,0,0,0,0,0,0,0,0,0,0,0,0,0,0,0,0,0,0,0,0,0,0,0,0,0,0,0,0,0,0,0,0,0,0,0,0,0,0,0,0,0,0,0,0,0,0,0,0,0,0,0,0,0,0,0,0,0,0,0,0,0,0,0,0,0,0,0,0,0,0,0,0,0,0,0,0,0,0,0,0,0,0,0,0,0,0,0,0,0,0,0,0,0,0,0,0,0,0,0,0,0,0,0,0,0,0,0,0,0,0,0,0,0,0,0,0,0,0,0,0,0,0,0,0,0,0,0,0,0,0,0,0,0,0,0,0,0,0,0,0,0,0,0,0,0,0,0,0,0,0,0,0,0],"id":5,"left_children":[1,3,5,7,9,11,13,-1,-1,15,17,19,21,23,25,27,29,-1,31,33,-1,35,37,-1,39,41,43,45,47,49,51,53,55,-1,57,59,61,63,65,-1,-1,-1,-1,67,69,-1,-1,-1,71,73,75,-1,-1,77,-1,-1,-1,-1,-1,79,-1,81,83,85,87,89,91,93,95,97,-1,-1,-1,99,101,-1,103,-1,-1,105,-1,107,109,111,113,115,-1,117,119,121,123,125,127,129,-1,-1,-1,131,133,135,137,-1,-1,-1,-1,-1,139,141,-1,-1,143,-1,-1,-1,-1,-1,-1,-1,-1,145,147,-1,-1,149,151,153,-1,155,157,-1,-1,-1,-1,159,-1,-1,-1,-1,-1,-1,-1,-1,-1,-1,-1,-1,-1,-1,-1,-1,-1,-1,-1,-1,-1,-1,-1,-1,-1,-1,-1],"loss_changes":[2.5387596E1,4.433609E0,1.845191E1,6.9709545E-1,2.826477E0,7.20954E0,5.3130436E0,0E0,0E0,1.5136948E0,9.5882416E-1,3.3666496E0,6.564018E0,2.3092802E0,2.4649315E0,1.3638859E0,3.1963224E0,0E0,3.7521296E0,1.0866517E1,0E0,5.8658857E0,7.265604E0,0E0,1.3006308E0,1.5827637E0,2.2119608E0,3.175346E0,1.3041763E0,4.2151823E0,4.8279285E-1,7.730093E-1,2.806389E0,0E0,3.307178E0,5.3450556E0,4.232012E0,5.784738E0,9.938904E0,0E0,0E0,0E0,0E0,2.386386E0,4.954508E0,0E0,0E0,0E0,1.0371395E0,2.3357787E0,5.874174E0,0E0,0E0,8.334604E-1,0E0,0E0,0E0,0E0,0E0,3.2780209E0,0E0,4.3033624E0,2.4392581E-1,3.870442E0,3.552986E0,7.949936E0,4.974576E0,6.145149E0,6.3959503E-1,1.9577355E0,0E0,0E0,0E0,1.7413716E0,2.8319743E0,0E0,9.403378E-2,0E0,0E0,6.225691E-1,0E0,3.8999496E0,5.7104025E0,3.503809E-1,1.067751E0,7.633643E-1,0E0,1.493454E-2,5.6745043E0,2.1971378E0,3.8900995E0,4.047876E0,2.8657587E0,3.5697126E-1,0E0,0E0,0E0,2.587399E0,2.0000188E0,1.7313837E0,3.7640715E-1,0E0,0E0,0E0,0E0,0E0,1.4947944E0,2.7481515E0,0E0,0E0,4.1743736E0,0E0,0E0,0E0,0E0,0E0,0E0,0E0,0E0,3.1127787E-1,3.5839214E0,0E0,0E0,2.392793E0,1.23191595E-1,2.6748183E0,0E0,4.018528E0,3.7172134E0,0E0,0E0,0E0,0E0,3.6937714E-2,0E0,0E0,0E0,0E0,0E0,0E0,0E0,0E0,0E0,0E0,0E0,0E0,0E0,0E0,0E0,0E0,0E0,0E0,0E0,0E0,0E0,0E0,0E0,0E0,0E0,0E0,0E0],"parents":[2147483647,0,0,1,1,2,2,3,3,4,4,5,5,6,6,9,9,10,10,11,11,12,12,13,13,14,14,15,15,16,16,18,18,19,19,21,21,22,22,24,24,25,25,26,26,27,27,28,28,29,29,30,30,31,31,32,32,34,34,35,35,36,36,37,37,38,38,43,43,44,44,48,48,49,49,50,50,53,53,59,59,61,61,62,62,63,63,64,64,65,65,66,66,67,67,68,68,69,69,73,73,74,74,76,76,79,79,81,81,82,82,83,83,84,84,85,85,87,87,88,88,89,89,90,90,91,91,92,92,93,93,97,97,98,98,99,99,100,100,106,106,107,107,110,110,119,119,120,120,123,123,124,124,125,125,127,127,128,128,133,133],"right_children":[2,4,6,8,10,12,14,-1,-1,16,18,20,22,24,26,28,30,-1,32,34,-1,36,38,-1,40,42,44,46,48,50,52,54,56,-1,58,60,62,64,66,-1,-1,-1,-1,68,70,-1,-1,-1,72,74,76,-1,-1,78,-1,-1,-1,-1,-1,80,-1,82,84,86,88,90,92,94,96,98,-1,-1,-1,100,102,-1,104,-1,-1,106,-1,108,110,112,114,116,-1,118,120,122,124,126,128,130,-1,-1,-1,132,134,136,138,-1,-1,-1,-1,-1,140,142,-1,-1,144,-1,-1,-1,-1,-1,-1,-1,-1,146,148,-1,-1,150,152,154,-1,156,158,-1,-1,-1,-1,160,-1,-1,-1,-1,-1,-1,-1,-1,-1,-1,-1,-1,-1,-1,-1,-1,-1,-1,-1,-1,-1,-1,-1,-1,-1,-1,-1],"split_conditions":[3.2E1,3.4E0,2E0,2.77E2,1E0,2.12E1,2.161E1,-1.0651887E-2,8.082431E-2,2.5E1,3E0,6.9E0,6.7E0,6.7E0,1E0,1.963E1,3.16E2,-1.0296085E-1,8.6E0,6.1E0,-9.565592E-2,1.4909091E0,2.75E2,9.3853615E-2,1.295E0,9.7E0,1.5704546E0,1.928E1,3.7E2,2.94E2,9.2E0,1.3093023E0,2.566E1,-9.432603E-2,1.928E1,4.11E2,1.8342105E0,1.0717949E0,2.93E2,3.8787045E-2,-7.018004E-2,-1.0448891E-1,-5.8748554E-3,1.2372093E0,5.1E1,-7.77548E-2,8.115272E-2,-1.0219546E-1,2.555E1,3.407E1,2.8E1,-1.0209097E-1,-1.7618591E-2,2.91E2,-1.0019642E-1,-5.668054E-2,1.08332016E-1,2.0267938E-1,7.5391973E-3,5.4E1,8.490321E-2,5.5E0,3.8E1,4.6E1,3.7E1,2.792E1,7E0,1.2046511E0,5E0,2.49E2,1.2760223E-1,-5.8953013E-2,4.2239256E-2,2.634E1,6.4E0,1.6694126E-1,3.08E2,2.5538007E-2,-6.2935226E-2,6.2E0,4.469884E-2,1E0,5.6E0,2.05E2,4.8E0,3.5E1,-3.3444412E-2,2E0,1.3255814E0,4.9E1,8E0,1.504878E0,4.669E1,2.66E2,1.3817625E-1,-7.7483444E-3,-9.831106E-2,2.28E2,4.463E1,2.262E1,3.171E1,-5.8071803E-2,1.0683352E-1,-5.817197E-2,-9.261745E-3,-1.0372257E-1,2.461E1,4.4E0,-8.9842066E-2,2.0081604E-1,2.48E2,-1.0464576E-2,-8.646512E-2,3.7377454E-2,-6.377196E-2,1.8682738E-1,5.2338578E-2,-3.5288945E-2,-9.6139304E-2,2.55E2,2.59E2,2.4976622E-1,6.349184E-2,1.2825E0,4.7E1,4.9E1,1.7610377E-1,3.299E1,3.63E2,-7.734086E-3,-8.349597E-2,-6.0486536E-2,9.084029E-2,2.91E2,3.5826255E-2,-6.658973E-2,2.8479306E-3,-9.892016E-2,-1.961015E-2,1.2380249E-2,-7.521542E-2,9.575565E-2,-1.8348059E-2,1.22971766E-1,-8.629891E-3,-9.2676654E-2,-3.2005355E-2,5.180142E-2,-5.93747E-2,-1.6514791E-2,1.4040928E-1,-6.607806E-2,-1.1024332E-2,-6.686344E-2,8.923821E-2,1.5139683E-2,-6.621621E-2,1.5650286E-1,-2.8538188E-2,-3.2294955E-2,-9.4673224E-2],"split_indices":[0,2,1,3,1,4,4,0,0,0,1,2,2,2,8,4,3,0,2,2,0,6,3,0,6,2,6,4,3,3,2,6,4,0,4,3,6,6,3,0,0,0,0,6,0,0,0,0,4,4,0,0,0,3,0,0,0,0,0,0,0,2,0,0,0,4,2,6,2,3,0,0,0,4,2,0,3,0,0,2,0,1,2,3,2,0,0,8,6,0,2,6,4,3,0,0,0,3,4,4,4,0,0,0,0,0,4,2,0,0,3,0,0,0,0,0,0,0,0,3,3,0,0,6,0,0,0,4,3,0,0,0,0,3,0,0,0,0,0,0,0,0,0,0,0,0,0,0,0,0,0,0,0,0,0,0,0,0,0,0,0],"split_type":[0,0,0,0,0,0,0,0,0,0,0,0,0,0,0,0,0,0,0,0,0,0,0,0,0,0,0,0,0,0,0,0,0,0,0,0,0,0,0,0,0,0,0,0,0,0,0,0,0,0,0,0,0,0,0,0,0,0,0,0,0,0,0,0,0,0,0,0,0,0,0,0,0,0,0,0,0,0,0,0,0,0,0,0,0,0,0,0,0,0,0,0,0,0,0,0,0,0,0,0,0,0,0,0,0,0,0,0,0,0,0,0,0,0,0,0,0,0,0,0,0,0,0,0,0,0,0,0,0,0,0,0,0,0,0,0,0,0,0,0,0,0,0,0,0,0,0,0,0,0,0,0,0,0,0,0,0,0,0,0,0],"sum_hessian":[3.5144574E2,1.3530455E2,2.161412E2,2.1213331E0,1.3318321E2,1.5212233E2,6.4018875E1,1.048543E0,1.07279E0,6.1642E1,7.1541214E1,1.8414616E1,1.3370772E2,4.5104465E0,5.950843E1,2.402579E1,3.7616207E1,5.8568123E1,1.2973096E1,7.5453706E0,1.0869246E1,5.30452E1,8.066251E1,1.8556329E0,2.6548135E0,2.902296E1,3.0485468E1,3.308296E0,2.0717493E1,2.7266005E1,1.0350204E1,1.0652807E1,2.3202887E0,4.770049E0,2.7753217E0,2.3203806E1,2.9841394E1,3.3377037E1,4.7285477E1,1.0544595E0,1.6003542E0,2.716497E1,1.8579899E0,1.9442822E1,1.1042648E1,2.2119465E0,1.0963495E0,1.8617428E1,2.1000638E0,2.3684118E1,3.5818853E0,9.121221E0,1.2289841E0,2.4949872E0,8.15782E0,1.028997E0,1.2912918E0,1.2136426E0,1.5616791E0,2.170466E1,1.4991457E0,2.3224928E1,6.6164675E0,4.6437197E0,2.8733316E1,1.0656524E1,3.6628952E1,4.9054837E0,1.4537337E1,9.981781E0,1.0608672E0,1.0962541E0,1.0038098E0,2.134025E1,2.3438692E0,1.4896579E0,2.0922275E0,1.2353166E0,1.2596705E0,2.0169771E1,1.5348897E0,1.1230998E1,1.199393E1,4.30037E0,2.3160975E0,3.0047288E0,1.6389908E0,7.238897E0,2.149442E1,5.0660677E0,5.590456E0,4.780765E0,3.1848188E1,3.8924854E0,1.0129985E0,1.0137227E0,1.3523614E1,2.6273053E0,7.3544755E0,1.3278465E1,8.061785E0,1.0442564E0,1.2996126E0,1.0485127E0,1.0437148E0,1.0900616E1,9.269155E0,7.482592E0,3.7484062E0,1.5290723E0,1.0464857E1,1.062204E0,3.238166E0,1.0416472E0,1.2744504E0,1.0059549E0,1.9987738E0,1.6846352E0,5.5542617E0,7.3242273E0,1.4170192E1,3.3002214E0,1.7658464E0,3.2094162E0,2.3810396E0,2.435362E0,2.345403E0,2.8855354E1,2.9928348E0,1.0020548E0,2.8904305E0,1.1664287E0,1.4608766E0,6.2834907E0,1.070985E0,5.6726E0,7.605865E0,6.792432E0,1.2693524E0,2.235605E0,7.0335493E0,2.2937393E0,5.188853E0,2.3629146E0,8.101943E0,4.525706E0,2.7985215E0,1.1281055E1,2.8891368E0,1.1415949E0,2.0678213E0,1.3094274E0,1.0716124E0,1.4331006E0,1.0022616E0,2.1530813E1,7.32454E0,1.5650989E0,1.4277358E0,1.5426544E0,4.740836E0],"tree_param":{"num_deleted":"0","num_feature":"9","num_nodes":"161","size_leaf_vector":"1"}},{"base_weights":[-4.3243745E-1,-7.7035016E-1,-2.2592296E-1,-5.6179804E-1,-9.460008E-1,-4.7333438E-2,-6.612994E-1,1.0218183E-1,-6.135565E-1,-1.0132654E-1,-5.946505E-1,-4.8057362E-1,5.266795E-2,2.7686957E-1,-7.412792E-1,-1.0036176E-1,-5.270856E-1,-8.3623993E-1,3.684828E-1,-7.2620445E-1,2.9812482E-1,1.2584364E-1,-5.9319097E-1,7.4130106E-1,-4.036933E-2,4.7342885E-1,-8.2296455E-1,-4.1835612E-1,-8.0924505E-1,-2.3301911E-1,-9.825923E-2,-2.3727687E-2,8.879936E-2,-8.7773037E-1,-2.6828972E-1,-4.087866E-1,1.5128797E-1,3.6925775E-1,-1.3581052E-1,-7.834703E-1,6.723022E-2,1.2628566E-1,-1.857589E-2,-5.890211E-2,1.0421046E0,-8.64664E-1,-4.340362E-1,-4.8369473E-1,5.0178623E-1,2.0896273E-3,-9.3566734E-1,2.3866085E-2,-6.114295E-2,7.409714E-3,-9.839893E-2,7.884373E-2,-6.045395E-1,2.4872268E-2,-8.252204E-2,-9.276052E-2,7.783058E-1,-2.9304257E-1,2.0585705E-1,-1.1996905E-2,-9.071516E-1,1.264169E-1,3.1523596E-2,-8.933082E-1,-2.6360103E-1,7.5232685E-3,-8.300214E-2,-5.5954987E-1,1.755325E-1,8.456913E-2,-8.821892E-3,-1.01047896E-1,-1.6777882E-2,-8.897448E-2,2.319258E-2,7.1435E-1,-6.2091106E-1,1.3023953E-1,1.1731696E0,-4.8021275E-1,2.3296608E-1,1.0284501E0,-1.3842212E-1,-9.962595E-2,-8.156939E-3,-9.2176723E-1,-3.7542963E-1,-6.797593E-2,3.936246E-2,-7.7190846E-2,1.1086849E-1,1.9991374E-2,-5.973594E-1,-6.50072E-2,7.323471E-1,-3.831178E-2,1.3433838E0,-8.334968E-1,1.4910892E-1,1.1668836E0,-3.1779176E-1,-3.599858E-2,1.3355696E0,-1.6739695E-1,-8.758745E-1,-7.174577E-1,9.0447134E-1,3.1984344E-1,1.4789826E-1,6.181422E-1,-4.010578E-1,-4.947717E-1,-9.7311944E-1,-7.367498E-2,3.3786017E-2,-6.803206E-2,-1.2902475E-2,-7.0341616E-3,1.1345159E-1,1.0281801E-1,-6.7600295E-2,1.8363279E-1,-4.416577E-6,-9.45289E-2,-2.1001417E-2,-5.1612634E-2,1.0969647E-1,6.53236E-3,1.7242326E-1,-5.843263E-4,-8.2179785E-2,7.01445E-2,1.9560581E-1,-7.839115E-2,1.6561354E-2,-1.6558504E-2,-9.367805E-2,-1.0297013E-2,-8.5596375E-2,1.4090648E-1,-6.392299E-2,1.0257699E-1,-5.9871275E-2,1.1714961E-1,-2.5580904E-2,2.859207E-2,-8.281708E-2,3.574016E-3,-8.461978E-2,-1.0429262E-1,-4.8984796E-2],"categories":[],"categories_nodes":[],"categories_segments":[],"categories_sizes":[],"default_left":[0,0,0,0,0,0,0,0,0,0,0,0,0,0,0,0,0,0,0,0,0,0,0,0,0,0,0,0,0,0,0,0,0,0,0,0,0,0,0,0,0,0,0,0,0,0,0,0,0,0,0,0,0,0,0,0,0,0,0,0,0,0,0,0,0,0,0,0,0,0,0,0,0,0,0,0,0,0,0,0,0,0,0,0,0,0,0,0,0,0,0,0,0,0,0,0,0,0,0,0,0,0,0,0,0,0,0,0,0,0,0,0,0,0,0,0,0,0,0,0,0,0,0,0,0,0,0,0,0,0,0,0,0,0,0,0,0,0,0,0,0,0,0,0,0,0,0,0,0,0,0,0,0,0,0],"id":6,"left_children":[1,3,5,7,9,11,13,-1,15,-1,17,19,21,23,25,-1,27,29,31,33,35,37,39,41,-1,43,45,47,49,51,-1,-1,-1,53,55,57,-1,59,61,63,-1,-1,-1,-1,65,67,69,71,73,-1,75,-1,-1,-1,-1,-1,77,-1,-1,79,81,83,85,-1,87,-1,-1,89,91,93,-1,95,97,-1,-1,-1,-1,-1,-1,99,101,103,105,107,109,111,113,-1,-1,115,117,-1,-1,-1,-1,-1,119,-1,121,123,125,127,129,131,133,-1,135,137,139,141,143,145,-1,147,149,151,153,-1,-1,-1,-1,-1,-1,-1,-1,-1,-1,-1,-1,-1,-1,-1,-1,-1,-1,-1,-1,-1,-1,-1,-1,-1,-1,-1,-1,-1,-1,-1,-1,-1,-1,-1,-1,-1,-1],"loss_changes":[2.3496578E1,4.166687E0,1.6448399E1,5.634758E0,1.0081978E0,6.583515E0,4.825405E0,0E0,1.4875813E0,0E0,3.4195533E0,5.6652E0,5.9296966E0,2.058198E0,6.0462646E0,0E0,1.2274532E0,7.418151E-1,1.2730203E0,1.287303E0,7.0931826E0,7.190094E0,3.6048198E0,2.0043764E0,0E0,3.167687E0,4.9694443E-1,2.5823998E0,1.3973475E0,7.631123E-1,0E0,0E0,0E0,1.6961908E0,2.9272575E0,1.7258637E0,0E0,1.1098724E1,3.0020323E0,8.409562E-1,0E0,0E0,0E0,0E0,1.04183674E-1,5.834694E-1,1.2679427E0,1.9407043E0,6.977354E-1,0E0,4.8622608E-1,0E0,0E0,0E0,0E0,0E0,1.5895576E0,0E0,0E0,1.250379E1,7.7936325E0,3.8446085E0,5.196112E0,0E0,6.2519264E-1,0E0,0E0,3.1692886E-1,1.247366E0,4.634485E0,0E0,1.0751133E0,2.573907E0,0E0,0E0,0E0,0E0,0E0,0E0,5.5698557E0,3.0112782E0,6.35381E0,5.25412E0,3.3548374E0,7.4290767E0,1.245709E0,2.9226916E0,0E0,0E0,4.3844986E-1,1.2876589E0,0E0,0E0,0E0,0E0,0E0,1.1537666E0,0E0,1.111388E0,4.9651303E0,4.223172E0,7.7536964E-1,3.5069628E0,2.4054494E0,1.532922E0,0E0,5.532219E0,3.627299E0,3.7503433E-1,3.3366847E-1,6.0944047E0,2.798366E0,0E0,2.1675196E0,3.3467278E0,1.2491932E0,7.176132E-1,0E0,0E0,0E0,0E0,0E0,0E0,0E0,0E0,0E0,0E0,0E0,0E0,0E0,0E0,0E0,0E0,0E0,0E0,0E0,0E0,0E0,0E0,0E0,0E0,0E0,0E0,0E0,0E0,0E0,0E0,0E0,0E0,0E0,0E0,0E0,0E0,0E0,0E0],"parents":[2147483647,0,0,1,1,2,2,3,3,4,4,5,5,6,6,8,8,10,10,11,11,12,12,13,13,14,14,16,16,17,17,18,18,19,19,20,20,21,21,22,22,23,23,25,25,26,26,27,27,28,28,29,29,33,33,34,34,35,35,37,37,38,38,39,39,44,44,45,45,46,46,47,47,48,48,50,50,56,56,59,59,60,60,61,61,62,62,64,64,67,67,68,68,69,69,71,71,72,72,79,79,80,80,81,81,82,82,83,83,84,84,85,85,86,86,89,89,90,90,96,96,98,98,99,99,100,100,101,101,102,102,103,103,104,104,106,106,107,107,108,108,109,109,110,110,111,111,113,113,114,114,115,115,116,116],"right_children":[2,4,6,8,10,12,14,-1,16,-1,18,20,22,24,26,-1,28,30,32,34,36,38,40,42,-1,44,46,48,50,52,-1,-1,-1,54,56,58,-1,60,62,64,-1,-1,-1,-1,66,68,70,72,74,-1,76,-1,-1,-1,-1,-1,78,-1,-1,80,82,84,86,-1,88,-1,-1,90,92,94,-1,96,98,-1,-1,-1,-1,-1,-1,100,102,104,106,108,110,112,114,-1,-1,116,118,-1,-1,-1,-1,-1,120,-1,122,124,126,128,130,132,134,-1,136,138,140,142,144,146,-1,148,150,152,154,-1,-1,-1,-1,-1,-1,-1,-1,-1,-1,-1,-1,-1,-1,-1,-1,-1,-1,-1,-1,-1,-1,-1,-1,-1,-1,-1,-1,-1,-1,-1,-1,-1,-1,-1,-1,-1,-1],"split_conditions":[3.2E1,1E0,2E0,3.4E0,3E0,2.32E2,2.161E1,1.0218183E-1,2.2E1,-1.0132654E-1,8.6E0,4.9E1,6.6666665E0,7E0,2.3636363E0,-1.0036176E-1,3.16E2,1.3093023E0,2.8E1,2.957E1,1.545E0,4.3E1,5.1E1,3E0,-4.036933E-2,3.7E1,4E0,3.08E2,2.4E1,2.91E2,-9.825923E-2,-2.3727687E-2,8.879936E-2,1.0717949E0,3.124E1,5.2E1,1.5128797E-1,3.8E1,1.5461539E0,3.4E1,6.723022E-2,1.2628566E-1,-1.857589E-2,-5.890211E-2,8E0,9.8E0,4.8333335E0,3.1E1,2.7E1,2.0896273E-3,9.2E0,2.3866085E-2,-6.114295E-2,7.409714E-3,-9.839893E-2,7.884373E-2,8.6E0,2.4872268E-2,-8.252204E-2,1.3731707E0,1.4090909E0,5.2E1,4.6E1,-1.1996905E-2,4.34E2,1.264169E-1,3.1523596E-2,5.3E1,1.4386364E0,4.285714E0,-8.300214E-2,1.0051283E0,6.4E0,8.456913E-2,-8.821892E-3,-1.01047896E-1,-1.6777882E-2,-8.897448E-2,2.319258E-2,1.227907E0,3.698E1,1.0534884E0,4.7E0,3.16E2,2.9E2,4.5E1,1.604762E0,-9.962595E-2,-8.156939E-3,4.9E0,1.4875E0,-6.797593E-2,3.936246E-2,-7.7190846E-2,1.1086849E-1,1.9991374E-2,3.171E1,-6.50072E-2,3.3E0,1.0488372E0,8.1E0,1E0,3.46E2,4E1,1E0,-3.599858E-2,3.75E0,2.66E2,3.1E0,2.54E2,3.111E1,3.098E1,1.4789826E-1,2.848E1,5.9E0,1.6475E0,5.8333335E0,-7.367498E-2,3.3786017E-2,-6.803206E-2,-1.2902475E-2,-7.0341616E-3,1.1345159E-1,1.0281801E-1,-6.7600295E-2,1.8363279E-1,-4.416577E-6,-9.45289E-2,-2.1001417E-2,-5.1612634E-2,1.0969647E-1,6.53236E-3,1.7242326E-1,-5.843263E-4,-8.2179785E-2,7.01445E-2,1.9560581E-1,-7.839115E-2,1.6561354E-2,-1.6558504E-2,-9.367805E-2,-1.0297013E-2,-8.5596375E-2,1.4090648E-1,-6.392299E-2,1.0257699E-1,-5.9871275E-2,1.1714961E-1,-2.5580904E-2,2.859207E-2,-8.281708E-2,3.574016E-3,-8.461978E-2,-1.0429262E-1,-4.8984796E-2],"split_indices":[0,1,1,2,1,3,4,0,0,0,2,0,7,2,7,0,3,6,0,4,6,0,0,1,0,0,1,3,0,3,0,0,0,6,4,0,0,0,6,0,0,0,0,0,2,2,7,0,0,0,2,0,0,0,0,0,2,0,0,6,6,0,0,0,3,0,0,0,6,7,0,6,2,0,0,0,0,0,0,6,4,6,2,3,3,0,6,0,0,2,6,0,0,0,0,0,4,0,7,6,2,1,3,0,1,0,7,3,7,3,4,4,0,4,2,6,7,0,0,0,0,0,0,0,0,0,0,0,0,0,0,0,0,0,0,0,0,0,0,0,0,0,0,0,0,0,0,0,0,0,0,0,0,0,0],"split_type":[0,0,0,0,0,0,0,0,0,0,0,0,0,0,0,0,0,0,0,0,0,0,0,0,0,0,0,0,0,0,0,0,0,0,0,0,0,0,0,0,0,0,0,0,0,0,0,0,0,0,0,0,0,0,0,0,0,0,0,0,0,0,0,0,0,0,0,0,0,0,0,0,0,0,0,0,0,0,0,0,0,0,0,0,0,0,0,0,0,0,0,0,0,0,0,0,0,0,0,0,0,0,0,0,0,0,0,0,0,0,0,0,0,0,0,0,0,0,0,0,0,0,0,0,0,0,0,0,0,0,0,0,0,0,0,0,0,0,0,0,0,0,0,0,0,0,0,0,0,0,0,0,0,0,0],"sum_hessian":[3.3819897E2,1.27251465E2,2.1094751E2,6.0096523E1,6.715494E1,1.5037363E2,6.0573887E1,1.308842E0,5.878768E1,5.478303E1,1.2371906E1,2.7486603E1,1.22887024E2,4.564947E0,5.6008938E1,8.742913E0,5.004477E1,9.996232E0,2.3756738E0,2.0946651E1,6.5399504E0,1.111041E2,1.1782922E1,2.6602712E0,1.9046761E0,3.2269278E0,5.278201E1,3.7916447E1,1.2128324E1,2.4578567E0,7.5383754E0,1.3476068E0,1.028067E0,1.5049808E1,5.896845E0,4.5535507E0,1.9863997E0,5.7345215E1,5.375889E1,1.0573925E1,1.2089962E0,1.4706692E0,1.1896019E0,1.1125633E0,2.1143646E0,4.6566166E1,6.2158465E0,3.5845417E1,2.0710294E0,1.7132328E0,1.0415091E1,1.2584876E0,1.1993692E0,1.5417817E0,1.3508025E1,1.0988163E0,4.7980285E0,1.9218557E0,2.631695E0,2.7292109E1,3.0053106E1,3.6913826E1,1.6845062E1,1.970886E0,8.60304E0,1.0533565E0,1.0610081E0,4.398386E1,2.5823047E0,3.402619E0,2.8132277E0,3.228203E1,3.563387E0,1.0346091E0,1.0364203E0,9.202606E0,1.2124847E0,3.5305417E0,1.2674868E0,1.0655701E1,1.6636408E1,1.1881896E1,1.8171211E1,2.7290192E1,9.623632E0,4.383713E0,1.24613495E1,7.5783467E0,1.0246925E0,4.0953453E1,3.030407E0,1.5601343E0,1.0221704E0,2.167447E0,1.2351718E0,1.3276062E0,3.0954422E1,1.3678111E0,2.1955757E0,5.278672E0,5.3770285E0,1.2972537E1,3.6638708E0,3.1014247E0,8.780472E0,1.6239045E0,1.6547306E1,1.6035433E1,1.125476E1,3.9560099E0,5.667623E0,2.3684652E0,2.0152476E0,2.8623316E0,9.599018E0,5.5381765E0,3.5415276E1,1.9896508E0,1.0407562E0,2.5911755E1,5.0426674E0,1.0082681E0,1.1873076E0,1.7460997E0,3.5325725E0,3.6652431E0,1.7117851E0,1.0562508E1,2.4100292E0,2.4205396E0,1.2433312E0,1.4173461E0,1.6840786E0,6.04845E0,2.7320216E0,9.237385E0,7.309921E0,5.14896E0,1.0886473E1,1.1825446E0,1.0072215E1,1.0483583E0,2.9076514E0,4.337146E0,1.3304771E0,1.2732389E0,1.0952263E0,1.5441643E0,1.3181674E0,3.8067405E0,5.792277E0,2.564745E0,2.9734316E0,2.9933447E1,5.4818287E0],"tree_param":{"num_deleted":"0","num_feature":"9","num_nodes":"155","size_leaf_vector":"1"}},{"base_weights":[-4.0691942E-1,-7.4180514E-1,-2.0969509E-1,4.1602254E-1,-7.666668E-1,-5.0162E-1,-1.1985681E-1,-1.8121582E-2,8.575914E-2,-1.0195531E0,-6.8132657E-1,-5.649493E-1,1.13841705E-1,-4.0493685E-1,-8.615569E-3,-4.1692474E-1,-1.05233446E-1,-8.3546984E-1,-5.289448E-1,9.0586826E-2,-7.106104E-1,-7.088552E-1,-1.659308E-1,3.9272365E-1,-1.878535E-1,-5.233368E-3,-5.6860197E-2,-8.797352E-1,-3.7407115E-1,-3.3698678E-1,-9.110148E-1,-6.2838227E-1,1.066476E0,3.245018E-1,-8.083693E-1,-3.2757267E-1,-8.795159E-1,-3.2392803E-1,7.813695E-1,1.8399505E-1,2.4518439E-1,-6.7544356E-2,-4.9193874E-1,-5.3821653E-1,-9.705366E-1,6.4169936E-2,-8.466676E-2,-5.3242564E-1,6.286118E-1,-1.0212033E-1,-2.263375E-1,1.5834354E-2,-8.932529E-2,1.6417481E-1,2.1142788E-2,-6.3414045E-2,1.0314949E-1,-8.7447864E-1,1.0866501E-1,-8.8426046E-2,4.4225863E-1,-1.010102E-1,-2.199415E-2,-9.5172115E-2,-5.801815E-2,1.16748236E-1,-1.39559945E-2,-3.714846E-1,4.8816964E-1,-3.9762726E-1,1.1388045E-1,-8.823789E-2,-2.493933E-1,-7.798482E-1,7.5340346E-2,-9.9789925E-2,-1.5173017E-2,-6.483942E-1,-3.10535E-2,-6.7721464E-2,1.2175322E0,-6.200123E-2,2.86133E-2,-3.9825376E-4,-9.221409E-1,-1.9164661E-2,3.9165337E-2,7.562167E-2,-1.521585E-2,-5.072118E-1,4.6480054E-1,4.167774E-2,-6.354943E-1,-7.687759E-2,6.4710057E-1,1.8529421E-1,-6.58308E-1,2.8941593E-1,-4.8012304E-1,8.986136E-2,-4.7712192E-1,-9.410878E-2,-2.6055503E-1,-7.668675E-1,-2.5589168E-1,8.769208E-1,-6.459383E-1,1.5750763E-1,1.8107899E-2,-2.2086546E-2,-9.465598E-2,1.568778E-2,-6.37039E-1,1.4652269E0,-2.6429912E-1,-9.492857E-2,1.9957569E-1,9.172781E-1,-1.340445E-1,-5.882929E-1,7.8276485E-1,2.0166728E-1,-8.112674E-1,-2.3887755E-1,5.9392E-1,1.5097249E-1,-9.1926E-2,7.3475994E-2,-6.5042824E-1,3.5824638E-2,-6.69904E-2,-1.0965001E-2,-8.486038E-2,4.710233E-2,-6.7887895E-2,-7.0487484E-3,1.3893776E-1,-7.145182E-3,-7.96743E-2,-1.7030457E-2,-7.8114204E-2,1.957133E-1,4.5926753E-2,-6.49477E-2,5.3601712E-2,4.0243864E-2,-1.0187176E-2,6.246351E-2,2.0746529E-1,-8.200698E-2,4.6417475E-2,-1.2298841E-2,-7.265343E-2,1.4109285E-1,-5.949476E-2,-9.315579E-3,3.948993E-2,-1.0596699E-2,-8.6266324E-2,-6.917896E-2,3.389288E-2,7.551772E-2,-7.1406424E-2,1.0515491E-1,-5.1020004E-2,1.4576678E-2,-8.323939E-2],"categories":[],"categories_nodes":[],"categories_segments":[],"categories_sizes":[],"default_left":[0,0,0,0,0,0,0,0,0,0,0,0,0,0,0,0,0,0,0,0,0,0,0,0,0,0,0,0,0,0,0,0,0,0,0,0,0,0,0,0,0,0,0,0,0,0,0,0,0,0,0,0,0,0,0,0,0,0,0,0,0,0,0,0,0,0,0,0,0,0,0,0,0,0,0,0,0,0,0,0,0,0,0,0,0,0,0,0,0,0,0,0,0,0,0,0,0,0,0,0,0,0,0,0,0,0,0,0,0,0,0,0,0,0,0,0,0,0,0,0,0,0,0,0,0,0,0,0,0,0,0,0,0,0,0,0,0,0,0,0,0,0,0,0,0,0,0,0,0,0,0,0,0,0,0,0,0,0,0,0,0,0,0,0,0,0,0],"id":7,"left_children":[1,3,5,7,9,11,13,-1,-1,15,17,19,-1,21,23,25,-1,27,29,31,33,35,37,39,41,-1,-1,43,45,47,49,51,53,55,57,59,61,63,65,-1,67,69,71,73,75,-1,-1,77,79,-1,81,-1,-1,-1,-1,-1,-1,83,85,-1,87,-1,-1,-1,89,-1,-1,91,93,95,97,-1,99,101,-1,-1,-1,103,105,-1,107,-1,-1,-1,109,-1,-1,-1,-1,111,113,-1,115,-1,117,119,121,123,125,-1,127,-1,129,131,133,135,137,-1,-1,-1,-1,-1,139,141,143,-1,145,147,149,151,153,155,157,159,161,163,-1,-1,165,-1,-1,-1,-1,-1,-1,-1,-1,-1,-1,-1,-1,-1,-1,-1,-1,-1,-1,-1,-1,-1,-1,-1,-1,-1,-1,-1,-1,-1,-1,-1,-1,-1,-1,-1,-1,-1,-1],"loss_changes":[2.1422722E1,3.7933273E0,5.368902E0,9.954916E-1,1.8630371E0,5.670121E0,5.0581255E0,0E0,0E0,1.12192154E-1,1.7102203E0,4.5779257E0,0E0,3.1349745E0,8.40608E0,1.4139384E-1,0E0,5.6596565E-1,3.2721548E0,7.322124E0,4.1873837E0,9.746733E-1,4.2001405E0,7.2534666E0,2.9208562E0,0E0,0E0,6.947212E-1,3.2200766E0,6.7640224E0,9.557657E-1,1.4100945E0,1.8135042E0,3.406292E0,2.2610073E0,3.645512E0,8.8139725E-1,3.83585E0,1.6075747E0,0E0,5.260788E0,3.5794668E0,1.9326005E0,3.860871E0,5.15337E-1,0E0,0E0,1.6587839E0,5.5874596E0,0E0,8.765892E-1,0E0,0E0,0E0,0E0,0E0,0E0,1.3835773E0,3.54821E-1,0E0,8.342118E-1,0E0,0E0,0E0,4.331106E0,0E0,0E0,2.3770618E0,5.441572E0,3.3365877E0,4.1909595E0,0E0,4.4588313E0,5.357256E-1,0E0,0E0,0E0,8.919296E-1,4.1812105E0,0E0,1.4290152E0,0E0,0E0,0E0,3.3370972E-1,0E0,0E0,0E0,0E0,9.498482E-1,6.6460247E0,0E0,2.2855263E0,0E0,4.8745165E0,3.842555E0,2.1153388E0,5.067745E0,2.6996727E0,0E0,3.31679E0,0E0,1.1500317E0,8.456516E-1,2.449482E0,1.5731022E0,3.2740235E-1,0E0,0E0,0E0,0E0,0E0,4.3485188E-1,9.667139E-1,2.1393096E0,0E0,2.2513373E-1,4.413109E0,3.1132069E0,1.5248108E-1,4.783827E0,2.100563E-1,3.7243366E-1,3.351078E0,4.6968036E0,3.3055737E0,0E0,0E0,1.9114833E0,0E0,0E0,0E0,0E0,0E0,0E0,0E0,0E0,0E0,0E0,0E0,0E0,0E0,0E0,0E0,0E0,0E0,0E0,0E0,0E0,0E0,0E0,0E0,0E0,0E0,0E0,0E0,0E0,0E0,0E0,0E0,0E0,0E0,0E0,0E0,0E0,0E0,0E0],"parents":[2147483647,0,0,1,1,2,2,3,3,4,4,5,5,6,6,9,9,10,10,11,11,13,13,14,14,15,15,17,17,18,18,19,19,20,20,21,21,22,22,23,23,24,24,27,27,28,28,29,29,30,30,31,31,32,32,33,33,34,34,35,35,36,36,37,37,38,38,40,40,41,41,42,42,43,43,44,44,47,47,48,48,50,50,57,57,58,58,60,60,64,64,67,67,68,68,69,69,70,70,72,72,73,73,77,77,78,78,80,80,84,84,89,89,90,90,92,92,94,94,95,95,96,96,97,97,98,98,100,100,102,102,103,103,104,104,105,105,106,106,112,112,113,113,114,114,116,116,117,117,118,118,119,119,120,120,121,121,122,122,123,123,124,124,125,125,128,128],"right_children":[2,4,6,8,10,12,14,-1,-1,16,18,20,-1,22,24,26,-1,28,30,32,34,36,38,40,42,-1,-1,44,46,48,50,52,54,56,58,60,62,64,66,-1,68,70,72,74,76,-1,-1,78,80,-1,82,-1,-1,-1,-1,-1,-1,84,86,-1,88,-1,-1,-1,90,-1,-1,92,94,96,98,-1,100,102,-1,-1,-1,104,106,-1,108,-1,-1,-1,110,-1,-1,-1,-1,112,114,-1,116,-1,118,120,122,124,126,-1,128,-1,130,132,134,136,138,-1,-1,-1,-1,-1,140,142,144,-1,146,148,150,152,154,156,158,160,162,164,-1,-1,166,-1,-1,-1,-1,-1,-1,-1,-1,-1,-1,-1,-1,-1,-1,-1,-1,-1,-1,-1,-1,-1,-1,-1,-1,-1,-1,-1,-1,-1,-1,-1,-1,-1,-1,-1,-1,-1,-1],"split_conditions":[3.2E1,3.4E0,1E0,2.7E1,1E0,1.2025641E1,3.8E1,-1.8121582E-2,8.575914E-2,2.4444444E0,2.6E1,3.2E0,1.13841705E-1,6.7E0,4.2E1,6.878788E0,-1.05233446E-1,9.714286E0,3.12E2,2.7777777E0,3.4E1,2.58E2,3.698E1,2.2E0,8.1E0,-5.233368E-3,-5.6860197E-2,5.4651165E0,3.71E2,7.395349E0,8.9E0,7.2E0,2.875E0,4.6E0,4.536E1,5.6190476E0,3.698E1,2.8888888E0,9.078947E0,1.8399505E-1,3.4444444E0,6.2E0,2.429E1,5.361111E0,4.121E1,6.4169936E-2,-8.466676E-2,3.18E1,2.74E2,-1.0212033E-1,9.107142E0,1.5834354E-2,-8.932529E-2,1.6417481E-1,2.1142788E-2,-6.3414045E-2,1.0314949E-1,2.133E1,9.175E0,-8.8426046E-2,3.011E1,-1.010102E-1,-2.199415E-2,-9.5172115E-2,2.71E2,1.16748236E-1,-1.39559945E-2,6.6E0,2.26E2,4.7777777E0,3.319E1,-8.823789E-2,2.529E1,4.428571E0,7.5340346E-2,-9.9789925E-2,-1.5173017E-2,8.5E0,6.0238094E0,-6.7721464E-2,2.9E1,-6.200123E-2,2.86133E-2,-3.9825376E-4,3.5E1,-1.9164661E-2,3.9165337E-2,7.562167E-2,-1.521585E-2,3.2222223E0,2.96E2,4.167774E-2,3.141E1,-7.687759E-2,3.43E2,4.7E1,4.1E0,3.8181818E0,4.1E0,8.986136E-2,2.09E2,-9.410878E-2,2.173E1,4.9333334E0,9E0,2.9E1,3.427E1,1.5750763E-1,1.8107899E-2,-2.2086546E-2,-9.465598E-2,1.568778E-2,4.75E0,2.465E1,3.6E2,-9.492857E-2,3.47E2,8.243243E0,3.66E2,2.575E1,3E2,2.948E1,2.08E2,7.139535E0,3.098E1,4.7E1,-9.1926E-2,7.3475994E-2,2.4E0,3.5824638E-2,-6.69904E-2,-1.0965001E-2,-8.486038E-2,4.710233E-2,-6.7887895E-2,-7.0487484E-3,1.3893776E-1,-7.145182E-3,-7.96743E-2,-1.7030457E-2,-7.8114204E-2,1.957133E-1,4.5926753E-2,-6.49477E-2,5.3601712E-2,4.0243864E-2,-1.0187176E-2,6.246351E-2,2.0746529E-1,-8.200698E-2,4.6417475E-2,-1.2298841E-2,-7.265343E-2,1.4109285E-1,-5.949476E-2,-9.315579E-3,3.948993E-2,-1.0596699E-2,-8.6266324E-2,-6.917896E-2,3.389288E-2,7.551772E-2,-7.1406424E-2,1.0515491E-1,-5.1020004E-2,1.4576678E-2,-8.323939E-2],"split_indices":[0,2,8,0,8,5,0,0,0,7,0,7,0,2,0,5,0,5,3,7,0,3,4,7,2,0,0,5,3,5,2,2,7,7,4,5,4,7,5,0,7,2,4,5,4,0,0,4,3,0,5,0,0,0,0,0,0,4,5,0,4,0,0,0,3,0,0,2,3,7,4,0,4,7,0,0,0,2,5,0,0,0,0,0,0,0,0,0,0,7,3,0,4,0,3,0,2,7,7,0,3,0,4,5,2,0,4,0,0,0,0,0,5,4,3,0,3,5,3,4,3,4,3,5,4,0,0,0,7,0,0,0,0,0,0,0,0,0,0,0,0,0,0,0,0,0,0,0,0,0,0,0,0,0,0,0,0,0,0,0,0,0,0,0,0,0,0],"split_type":[0,0,0,0,0,0,0,0,0,0,0,0,0,0,0,0,0,0,0,0,0,0,0,0,0,0,0,0,0,0,0,0,0,0,0,0,0,0,0,0,0,0,0,0,0,0,0,0,0,0,0,0,0,0,0,0,0,0,0,0,0,0,0,0,0,0,0,0,0,0,0,0,0,0,0,0,0,0,0,0,0,0,0,0,0,0,0,0,0,0,0,0,0,0,0,0,0,0,0,0,0,0,0,0,0,0,0,0,0,0,0,0,0,0,0,0,0,0,0,0,0,0,0,0,0,0,0,0,0,0,0,0,0,0,0,0,0,0,0,0,0,0,0,0,0,0,0,0,0,0,0,0,0,0,0,0,0,0,0,0,0,0,0,0,0,0,0],"sum_hessian":[3.2570773E2,1.1969875E2,2.0600899E2,2.185487E0,1.1751327E2,4.740035E1,1.5860864E2,1.1796184E0,1.0058687E0,2.6888487E1,9.062478E1,4.626921E1,1.1311377E0,4.3777935E1,1.148307E2,2.0949435E0,2.4793545E1,4.2823513E1,4.780127E1,8.48068E0,3.7788532E1,1.8406506E1,2.5371428E1,3.508325E1,7.974746E1,1.0106491E0,1.0842944E0,3.8247482E1,4.5760307E0,3.3068924E1,1.4732345E1,5.0881605E0,3.39252E0,3.0607386E0,3.472779E1,6.593975E0,1.1812531E1,2.2308683E1,3.0627437E0,2.1844866E0,3.289876E1,5.8015976E1,2.1731482E1,9.488209E0,2.8759274E1,1.3393962E0,3.2366345E0,2.7875483E1,5.193441E0,1.2266696E1,2.4656491E0,1.3828794E0,3.7052815E0,1.4780382E0,1.9144816E0,1.3428953E0,1.7178433E0,3.2435883E1,2.2919097E0,3.740481E0,2.853494E0,9.416713E0,2.3958185E0,5.870281E0,1.6438402E1,1.9693455E0,1.0933981E0,9.149508E0,2.3749252E1,2.0154799E1,3.786118E1,7.3161826E0,1.4415298E1,8.326703E0,1.1615052E0,2.761763E1,1.1416428E0,2.240087E1,5.4746137E0,1.5676126E0,3.6258283E0,1.2757674E0,1.1898816E0,1.7400181E0,3.0695864E1,1.2685163E0,1.0233934E0,1.6891326E0,1.1643614E0,8.8578205E0,7.580582E0,2.150387E0,6.9991217E0,2.2351143E0,2.1514137E1,6.3173785E0,1.38374195E1,2.9620668E1,8.240509E0,1.8985413E0,1.2516757E1,5.7340446E0,2.5926588E0,1.6474424E1,5.926445E0,2.0384161E0,3.4361973E0,2.3094583E0,1.31637E0,1.3708888E0,2.9324976E1,1.4144242E0,7.443396E0,2.7700496E0,4.8105326E0,4.9880176E0,2.011104E0,1.585577E1,5.658367E0,2.7596402E0,3.5577383E0,2.0414495E0,1.179597E1,1.0909303E1,1.8711367E1,3.6504934E0,4.590016E0,1.1606941E0,1.1356063E1,1.0819476E0,1.5107112E0,2.0812445E0,1.4393179E1,2.1382468E0,3.7881982E0,1.0182922E0,1.020124E0,1.0209022E0,2.4152951E0,2.270691E0,5.172705E0,1.2253329E0,1.5447167E0,3.374784E0,1.4357486E0,1.0018651E0,1.009239E0,1.3884711E1,1.9710588E0,2.4629993E0,3.195368E0,1.0649172E0,1.694723E0,2.4270313E0,1.130707E0,1.0133069E0,1.0281426E0,1.0091583E0,1.0786812E1,6.0050163E0,4.9042864E0,1.7033945E1,1.6774201E0,1.2954893E0,2.355004E0,2.1495569E0,9.206506E0],"tree_param":{"num_deleted":"0","num_feature":"9","num_nodes":"167","size_leaf_vector":"1"}},{"base_weights":[-3.8245818E-1,-7.145017E-1,-1.9372553E-1,-4.957656E-1,-9.0713733E-1,-2.9813292E-2,-6.164759E-1,9.0039E-2,-5.4884195E-1,-9.8206645E-1,-5.39324E-1,-5.693069E-1,4.328403E-2,2.6540768E-1,-6.9869334E-1,-7.7165025E-1,-3.9523524E-1,-5.2571017E-1,-1.0169794E-1,-7.924918E-1,3.633315E-1,-7.012904E-2,-9.123534E-1,-2.0339504E-1,1.9988187E-1,1.2733948E-1,-2.718075E-1,4.456314E-1,-7.834412E-1,-7.212926E-2,-8.7906724E-1,-4.4804937E-1,4.384316E-2,-7.830422E-2,-2.5040864E-3,-7.4956133E-3,-8.652083E-2,-2.0165404E-2,7.99889E-2,-9.120464E-2,1.062196E0,-1.9443033E-2,-9.893473E-2,-2.6171574E-1,8.6915575E-2,1.08612955E-1,8.652671E-1,4.513047E-2,-7.5453706E-2,-5.719776E-2,9.478997E-1,-9.274746E-1,-6.1860925E-1,-7.085376E-2,8.216131E-2,-9.717592E-2,-1.0860686E-1,1.553492E-1,-4.9584135E-1,1.6581474E-1,-1.8211965E-2,-1.1711373E-1,-7.554506E-1,2.813542E-1,-1.9766314E-1,1.346485E0,-1.337055E-1,2.1997683E-2,1.2734817E-1,-1.0008428E-1,1.8626658E-2,-8.3013856E-1,-3.3674586E-1,3.8285922E-2,-5.6024283E-2,-1.269192E-2,3.768869E-2,-1.5947123E-1,-6.904156E-1,-2.3718786E-1,9.2794883E-1,-1.0913811E-2,-8.8227636E-1,-6.436845E-1,4.1631454E-1,5.3961057E-2,-6.171288E-1,1.6209414E0,3.3452414E-2,6.0551424E-2,-7.091987E-2,-9.4659686E-2,1.9359974E-2,3.7925878E-1,-5.936205E-1,7.314298E-2,-3.7325525E-1,-4.0938607E-1,-9.7911395E-2,4.7217283E-2,-5.612336E-1,6.70417E-3,1.3883226E-1,-9.710457E-2,-1.1072054E-2,-8.661889E-2,-1.3045202E-1,6.2854296E-1,-9.507452E-2,-7.476072E-1,3.7060335E-1,-9.6729666E-2,2.064045E-1,2.8440032E-2,1.9700314E-1,-3.8357787E-2,1.2444241E-1,-8.222725E-1,8.811213E-2,-6.400065E-2,4.8423596E-2,2.6064185E-2,-5.7368424E-2,-1.12422835E-2,1.21125355E-1,-2.712666E-2,-7.944039E-2,-5.671796E-2,3.625546E-2,-2.0568972E-2,8.613751E-2,4.3639757E-2,-4.2683434E-2,-1.1192336E-2,-8.787886E-2,-7.5068176E-2,6.1138775E-2,1.2449016E-1,-7.062021E-2,-9.316121E-2,-8.402699E-3,-6.427743E-2,8.913629E-2],"categories":[],"categories_nodes":[],"categories_segments":[],"categories_sizes":[],"default_left":[0,0,0,0,0,0,0,0,0,0,0,0,0,0,0,0,0,0,0,0,0,0,0,0,0,0,0,0,0,0,0,0,0,0,0,0,0,0,0,0,0,0,0,0,0,0,0,0,0,0,0,0,0,0,0,0,0,0,0,0,0,0,0,0,0,0,0,0,0,0,0,0,0,0,0,0,0,0,0,0,0,0,0,0,0,0,0,0,0,0,0,0,0,0,0,0,0,0,0,0,0,0,0,0,0,0,0,0,0,0,0,0,0,0,0,0,0,0,0,0,0,0,0,0,0,0,0,0,0,0,0,0,0,0,0,0,0,0,0,0,0,0,0],"id":8,"left_children":[1,3,5,7,9,11,13,-1,15,17,19,21,23,25,27,29,31,33,-1,35,37,39,41,43,45,-1,47,49,51,53,55,57,-1,-1,-1,-1,-1,-1,-1,-1,59,-1,-1,61,-1,63,65,-1,-1,-1,67,69,71,-1,-1,-1,73,75,77,-1,-1,79,81,83,85,87,89,-1,-1,-1,-1,91,93,-1,-1,-1,-1,95,97,99,101,-1,103,105,107,109,111,113,-1,-1,-1,-1,-1,115,117,-1,119,121,-1,123,125,-1,-1,-1,-1,-1,127,129,131,133,135,-1,137,-1,-1,-1,-1,139,141,-1,-1,-1,-1,-1,-1,-1,-1,-1,-1,-1,-1,-1,-1,-1,-1,-1,-1,-1,-1,-1,-1,-1,-1],"loss_changes":[1.9617283E1,4.348568E0,1.4004723E1,4.609126E0,1.1058922E0,5.816932E0,4.2814083E0,0E0,1.5471954E0,2.3146057E-1,3.0900054E0,2.9493632E0,5.0734053E0,3.3472645E0,5.3870964E0,1.5171204E0,1.6971169E0,6.873584E-1,0E0,4.5118618E-1,9.9285203E-1,8.834399E0,3.7954426E-1,3.423013E0,4.7762814E0,0E0,1.890202E0,2.698793E0,5.831623E-1,2.7943811E0,1.1902885E0,1.0156226E0,0E0,0E0,0E0,0E0,0E0,0E0,0E0,0E0,3.2537327E0,0E0,0E0,3.4256063E0,0E0,3.8472502E0,4.7612844E0,0E0,0E0,0E0,4.7858977E-1,2.1477547E0,1.2543554E0,0E0,0E0,0E0,8.9689237E-1,2.4482329E-1,1.8793755E0,0E0,0E0,5.1458683E0,8.026118E-1,6.040144E0,2.8230863E0,1.2691755E0,2.1344526E0,0E0,0E0,0E0,0E0,1.8541288E0,2.563221E0,0E0,0E0,0E0,0E0,2.6423423E0,1.1372261E0,3.3447266E0,1.5909336E0,0E0,5.106993E-1,6.0409784E-1,4.5047398E0,4.7036834E0,3.0807703E0,1.7121696E0,0E0,0E0,0E0,0E0,0E0,3.0952487E0,1.5915935E0,0E0,2.7561827E0,1.3962116E0,0E0,3.8708715E0,9.276295E-1,0E0,0E0,0E0,0E0,0E0,8.680058E-1,5.824649E0,2.457364E0,3.4111404E-1,4.014854E0,0E0,4.485174E0,0E0,0E0,0E0,0E0,5.1861525E-1,2.5402205E0,0E0,0E0,0E0,0E0,0E0,0E0,0E0,0E0,0E0,0E0,0E0,0E0,0E0,0E0,0E0,0E0,0E0,0E0,0E0,0E0,0E0,0E0,0E0,0E0],"parents":[2147483647,0,0,1,1,2,2,3,3,4,4,5,5,6,6,8,8,9,9,10,10,11,11,12,12,13,13,14,14,15,15,16,16,17,17,19,19,20,20,21,21,22,22,23,23,24,24,26,26,27,27,28,28,29,29,30,30,31,31,40,40,43,43,45,45,46,46,50,50,51,51,52,52,56,56,57,57,58,58,61,61,62,62,63,63,64,64,65,65,66,66,71,71,72,72,77,77,78,78,79,79,80,80,82,82,83,83,84,84,85,85,86,86,87,87,93,93,94,94,96,96,97,97,99,99,100,100,106,106,107,107,108,108,109,109,110,110,112,112,117,117,118,118],"right_children":[2,4,6,8,10,12,14,-1,16,18,20,22,24,26,28,30,32,34,-1,36,38,40,42,44,46,-1,48,50,52,54,56,58,-1,-1,-1,-1,-1,-1,-1,-1,60,-1,-1,62,-1,64,66,-1,-1,-1,68,70,72,-1,-1,-1,74,76,78,-1,-1,80,82,84,86,88,90,-1,-1,-1,-1,92,94,-1,-1,-1,-1,96,98,100,102,-1,104,106,108,110,112,114,-1,-1,-1,-1,-1,116,118,-1,120,122,-1,124,126,-1,-1,-1,-1,-1,128,130,132,134,136,-1,138,-1,-1,-1,-1,140,142,-1,-1,-1,-1,-1,-1,-1,-1,-1,-1,-1,-1,-1,-1,-1,-1,-1,-1,-1,-1,-1,-1,-1,-1],"split_conditions":[3.2E1,1E0,2E0,3.4E0,3E0,2.12E1,2.161E1,9.0039E-2,2.5E1,4.9772725E0,8.6E0,6.9E0,6.7E0,4.923077E0,2.3636363E0,1.963E1,3.883E1,2.8E1,-1.0169794E-1,4.9534883E0,2.8E1,6.1E0,2.3E0,1.2404762E1,5.285714E0,1.2733948E-1,6.3E0,2E0,1E0,1.928E1,9.714286E0,2.25E0,4.384316E-2,-7.830422E-2,-2.5040864E-3,-7.4956133E-3,-8.652083E-2,-2.0165404E-2,7.99889E-2,-9.120464E-2,4.8333335E0,-1.9443033E-2,-9.893473E-2,6.6666665E0,8.6915575E-2,4.6E1,7.4166665E0,4.513047E-2,-7.5453706E-2,-5.719776E-2,3.325E1,9.7E0,4.571429E0,-7.085376E-2,8.216131E-2,-9.717592E-2,6.9E0,2.698E1,6.15E0,1.6581474E-1,-1.8211965E-2,6.3333335E0,3.4E1,5.1860466E0,3.111E1,2.942E1,5.714286E0,2.1997683E-2,1.2734817E-1,-1.0008428E-1,1.8626658E-2,5.2E1,4.8333335E0,3.8285922E-2,-5.6024283E-2,-1.269192E-2,3.768869E-2,5.5E0,2.9E1,6E0,6.2619047E0,-1.0913811E-2,5.1E1,8.7E0,1E0,2.425E1,1E0,5.625E0,3.3452414E-2,6.0551424E-2,-7.091987E-2,-9.4659686E-2,1.9359974E-2,3E0,6.7E0,7.314298E-2,5.931818E0,2.192E1,-9.7911395E-2,5.2E1,6.878788E0,6.70417E-3,1.3883226E-1,-9.710457E-2,-1.1072054E-2,-8.661889E-2,3.9E1,2.7777777E0,2.802E1,2.75E0,4.7E1,-9.6729666E-2,6.394737E0,2.8440032E-2,1.9700314E-1,-3.8357787E-2,1.2444241E-1,3.572E1,5.571429E0,-6.400065E-2,4.8423596E-2,2.6064185E-2,-5.7368424E-2,-1.12422835E-2,1.21125355E-1,-2.712666E-2,-7.944039E-2,-5.671796E-2,3.625546E-2,-2.0568972E-2,8.613751E-2,4.3639757E-2,-4.2683434E-2,-1.1192336E-2,-8.787886E-2,-7.5068176E-2,6.1138775E-2,1.2449016E-1,-7.062021E-2,-9.316121E-2,-8.402699E-3,-6.427743E-2,8.913629E-2],"split_indices":[0,1,1,2,1,4,4,0,0,5,2,2,2,5,7,4,4,0,0,5,0,2,7,5,7,0,2,8,8,4,5,7,0,0,0,0,0,0,0,0,7,0,0,7,0,0,5,0,0,0,4,2,7,0,0,0,2,4,5,0,0,7,0,5,4,4,7,0,0,0,0,0,7,0,0,0,0,2,0,2,5,0,0,2,1,4,1,7,0,0,0,0,0,1,2,0,5,4,0,0,5,0,0,0,0,0,0,7,4,7,0,0,5,0,0,0,0,4,7,0,0,0,0,0,0,0,0,0,0,0,0,0,0,0,0,0,0,0,0,0,0,0,0],"split_type":[0,0,0,0,0,0,0,0,0,0,0,0,0,0,0,0,0,0,0,0,0,0,0,0,0,0,0,0,0,0,0,0,0,0,0,0,0,0,0,0,0,0,0,0,0,0,0,0,0,0,0,0,0,0,0,0,0,0,0,0,0,0,0,0,0,0,0,0,0,0,0,0,0,0,0,0,0,0,0,0,0,0,0,0,0,0,0,0,0,0,0,0,0,0,0,0,0,0,0,0,0,0,0,0,0,0,0,0,0,0,0,0,0,0,0,0,0,0,0,0,0,0,0,0,0,0,0,0,0,0,0,0,0,0,0,0,0,0,0,0,0,0,0],"sum_hessian":[3.1424664E2,1.1287543E2,2.0137123E2,5.4530323E1,5.8345104E1,1.4587996E2,5.549126E1,1.4124426E0,5.311788E1,4.7083477E1,1.126163E1,1.6597086E1,1.2928288E2,4.5422215E0,5.094904E1,2.0034323E1,3.3083557E1,4.48724E0,4.2596237E1,8.890231E0,2.3713994E0,7.2507367E0,9.34635E0,5.0086235E1,7.919665E1,1.1027493E0,3.4394724E0,3.2194514E0,4.7729588E1,2.8894079E0,1.7144917E1,3.1547527E1,1.5360304E0,2.5913546E0,1.8958853E0,1.0049181E0,7.8853126E0,1.2681987E0,1.1032008E0,4.27023E0,2.9805067E0,1.246717E0,8.099632E0,4.8220215E1,1.8660197E0,7.066673E1,8.529911E0,1.40297E0,2.0365024E0,1.0180552E0,2.2013962E0,2.300264E1,2.4726946E1,1.8087046E0,1.0807031E0,1.5070548E1,2.0743673E0,2.1501577E0,2.939737E1,1.7904246E0,1.1900821E0,3.825386E1,9.966353E0,4.5235218E1,2.5431515E1,5.5220156E0,3.0078957E0,1.198185E0,1.0032113E0,2.1676088E1,1.326552E0,1.3014673E1,1.1712274E1,1.0663064E0,1.008061E0,1.1332922E0,1.0168654E0,1.1440025E1,1.7957344E1,3.500495E1,3.24891E0,1.9400854E0,8.026268E0,5.2794743E0,3.9955746E1,1.6440647E1,8.990868E0,3.8705044E0,1.6515111E0,1.2938206E0,1.7140752E0,1.1753027E1,1.2616466E0,2.9666595E0,8.745614E0,1.7453381E0,9.694687E0,1.0324822E1,7.632522E0,1.9097734E1,1.5907216E1,1.5311873E0,1.7177228E0,6.9662313E0,1.0600368E0,3.203103E0,2.076371E0,2.8075298E1,1.18804455E1,4.2700725E0,1.2170575E1,6.186E0,2.8048675E0,1.1773899E0,2.6931145E0,1.8723801E0,1.0942794E0,6.3946934E0,2.3509202E0,7.5878596E0,2.1068275E0,1.9177219E0,8.407101E0,1.7588943E1,1.5087911E0,8.054343E0,7.852873E0,1.0212508E0,1.0551202E0,6.151429E0,2.192387E1,4.4447117E0,7.4357343E0,1.047458E0,3.2226143E0,1.7771391E0,1.0393436E1,1.1416337E0,1.6632338E0,5.341631E0,1.0530624E0,1.3355095E0,1.0154108E0],"tree_param":{"num_deleted":"0","num_feature":"9","num_nodes":"143","size_leaf_vector":"1"}},{"base_weights":[-3.589576E-1,-6.8668574E-1,-1.7949516E-1,-4.673892E-1,-8.862265E-1,-2.8221464E-2,-5.87569E-1,8.221648E-2,-5.201543E-1,-9.654979E-1,-5.114317E-1,-4.1995072E-1,5.7013255E-2,3.1056538E-1,-6.578704E-1,-9.5361285E-2,-4.3156204E-1,-5.04752E-1,-1.0025241E0,-7.676605E-1,3.3976057E-1,-6.6378665E-1,2.6608014E-1,1.0662204E-1,-7.1206766E-1,-5.841593E-2,7.752276E-1,8.031249E-2,-7.1008235E-1,-3.2002926E-1,-7.3699445E-1,-8.255982E-2,3.7859734E-2,-1.0489333E-1,-5.024698E-1,-1.3565396E-2,-9.384079E-2,-1.9207845E-2,7.355158E-2,1.1239059E-2,-7.3278797E-1,-3.8460904E-1,1.2655285E-1,6.706892E-2,1.1617353E0,-1.218983E-2,-9.090689E-2,1.064617E-1,1.5637212E-2,-7.312129E-2,1.1130909E-1,-8.6851305E-1,-4.845706E-1,-4.7695678E-1,5.2484703E-1,8.738425E-3,-8.804189E-1,-7.730413E-2,1.9644252E-3,-9.799652E-2,-4.7908452E-1,2.2879284E-2,-7.9825774E-2,1.3334142E-1,-5.716298E-1,1.5773861E-1,3.3292614E-2,-4.8553944E-1,-1.0277263E-1,8.011659E-2,-5.9244245E-1,-3.027315E-1,-8.640633E-1,1.428956E0,-7.5137846E-2,-9.654649E-2,-1.3114939E-2,-1.0780968E-1,-7.71058E-1,3.3740544E-1,-9.082545E-2,-7.926374E-1,6.0776718E-2,-8.087215E-1,3.332267E-2,-6.5688306E-1,2.8337378E-2,-5.4041433E-1,1.064905E-1,-6.779339E-3,-9.617119E-2,3.0116213E-2,1.7848854E-1,5.5144185E-1,-7.791849E-2,-8.874526E-2,-1.890808E-2,-3.5796102E-2,6.164445E-1,-2.812525E-1,3.556476E-1,-9.629242E-2,1.985269E-3,-5.799362E-3,-9.209549E-2,-8.3172095E-1,-1.4681906E-1,-7.2532E-2,2.8593747E-3,-7.6360814E-2,5.042093E-2,-1.8086126E-2,1.024371E-1,5.5073477E-2,-5.741266E-2,1.64638E-1,3.657718E-2,-2.5466338E-3,-6.4295076E-2,-4.342587E-2,6.1277747E-2,-1.24173E-2,-9.3627594E-2,-6.4450406E-2,7.570722E-2],"categories":[],"categories_nodes":[],"categories_segments":[],"categories_sizes":[],"default_left":[0,0,0,0,0,0,0,0,0,0,0,0,0,0,0,0,0,0,0,0,0,0,0,0,0,0,0,0,0,0,0,0,0,0,0,0,0,0,0,0,0,0,0,0,0,0,0,0,0,0,0,0,0,0,0,0,0,0,0,0,0,0,0,0,0,0,0,0,0,0,0,0,0,0,0,0,0,0,0,0,0,0,0,0,0,0,0,0,0,0,0,0,0,0,0,0,0,0,0,0,0,0,0,0,0,0,0,0,0,0,0,0,0,0,0,0,0,0,0,0,0,0,0,0,0],"id":9,"left_children":[1,3,5,7,9,11,13,-1,15,17,19,21,23,25,27,-1,29,31,33,35,37,39,41,43,45,-1,47,49,51,53,55,-1,-1,-1,57,-1,-1,-1,-1,-1,59,61,-1,63,65,-1,-1,-1,-1,-1,-1,67,69,71,73,-1,75,-1,-1,-1,77,-1,-1,79,81,-1,-1,83,-1,-1,85,87,89,91,-1,-1,-1,93,95,97,99,101,-1,103,-1,105,-1,107,109,-1,-1,-1,-1,111,-1,-1,-1,113,115,117,119,-1,-1,-1,-1,121,123,-1,-1,-1,-1,-1,-1,-1,-1,-1,-1,-1,-1,-1,-1,-1,-1,-1,-1],"loss_changes":[1.780014E1,4.288742E0,1.2222631E1,4.05564E0,1.1449318E0,4.888614E0,3.5867481E0,0E0,1.5789881E0,2.5143814E-1,2.824716E0,4.551967E0,4.674948E0,2.3520322E0,1.9842129E0,0E0,1.2925177E0,1.8194284E0,4.0317535E-1,8.8087845E-1,8.596678E-1,1.1311884E0,5.4114575E0,4.6840997E0,7.5354743E-1,0E0,4.4894648E-1,4.3352413E0,1.2512398E0,4.842002E0,1.4051299E0,0E0,0E0,0E0,7.672579E-1,0E0,0E0,0E0,0E0,0E0,6.6665745E-1,1.5409927E0,0E0,4.77655E0,8.740816E-1,0E0,0E0,0E0,0E0,0E0,0E0,1.1001587E0,3.4668517E0,1.7435932E0,7.8825846E0,0E0,4.8887205E-1,0E0,0E0,0E0,1.098156E0,0E0,0E0,4.6698937E0,3.2520366E0,0E0,0E0,2.8089533E0,0E0,0E0,1.341939E0,2.201512E0,6.1037874E-1,9.873147E-1,0E0,0E0,0E0,3.0674646E0,2.3440146E-1,5.572709E0,4.2758822E0,1.3175731E0,0E0,5.509443E-1,0E0,1.6058865E0,0E0,1.5051184E0,3.476716E0,0E0,0E0,0E0,0E0,1.4294757E0,0E0,0E0,0E0,7.814599E0,7.285825E0,3.2207248E0,3.338478E0,0E0,0E0,0E0,0E0,9.3541145E-1,3.2593799E0,0E0,0E0,0E0,0E0,0E0,0E0,0E0,0E0,0E0,0E0,0E0,0E0,0E0,0E0,0E0,0E0,0E0,0E0],"parents":[2147483647,0,0,1,1,2,2,3,3,4,4,5,5,6,6,8,8,9,9,10,10,11,11,12,12,13,13,14,14,16,16,17,17,18,18,19,19,20,20,21,21,22,22,23,23,24,24,26,26,27,27,28,28,29,29,30,30,34,34,40,40,41,41,43,43,44,44,51,51,52,52,53,53,54,54,56,56,60,60,63,63,64,64,67,67,70,70,71,71,72,72,73,73,77,77,78,78,79,79,80,80,81,81,83,83,85,85,87,87,88,88,93,93,97,97,98,98,99,99,100,100,105,105,106,106],"right_children":[2,4,6,8,10,12,14,-1,16,18,20,22,24,26,28,-1,30,32,34,36,38,40,42,44,46,-1,48,50,52,54,56,-1,-1,-1,58,-1,-1,-1,-1,-1,60,62,-1,64,66,-1,-1,-1,-1,-1,-1,68,70,72,74,-1,76,-1,-1,-1,78,-1,-1,80,82,-1,-1,84,-1,-1,86,88,90,92,-1,-1,-1,94,96,98,100,102,-1,104,-1,106,-1,108,110,-1,-1,-1,-1,112,-1,-1,-1,114,116,118,120,-1,-1,-1,-1,122,124,-1,-1,-1,-1,-1,-1,-1,-1,-1,-1,-1,-1,-1,-1,-1,-1,-1,-1],"split_conditions":[3.2E1,1E0,2E0,3.4E0,3E0,2.32E2,2.3636363E0,8.221648E-2,2.2E1,4.9772725E0,8.6E0,4.9E1,1.8342105E0,3.7E1,4.923077E0,-9.5361285E-2,3.16E2,1.585E0,2.1E0,1.3093023E0,2.8E1,1.0717949E0,1.545E0,1.2025641E1,4.8E0,-5.841593E-2,8E0,4.6511626E0,1.4622222E0,7.395349E0,2.4E1,-8.255982E-2,3.7859734E-2,-1.0489333E-1,8.581395E0,-1.3565396E-2,-9.384079E-2,-1.9207845E-2,7.355158E-2,1.1239059E-2,4.75E0,5.2E1,1.2655285E-1,6.6666665E0,4.142857E0,-1.218983E-2,-9.090689E-2,1.064617E-1,1.5637212E-2,-7.312129E-2,1.1130909E-1,1.2372093E0,1.4744186E0,2.66E2,1.9970589E0,8.738425E-3,9.2E0,-7.730413E-2,1.9644252E-3,-9.799652E-2,3.7692308E0,2.2879284E-2,-7.9825774E-2,4.3E1,5.1E1,1.5773861E-1,3.3292614E-2,1.2046511E0,-1.0277263E-1,8.011659E-2,5.3E1,2.4E2,2.8888888E0,2.94E2,-7.5137846E-2,-9.654649E-2,-1.3114939E-2,2.14E2,5.7777777E0,3.8E1,1.5461539E0,1.595E0,6.0776718E-2,5.7954545E0,3.332267E-2,4.714286E0,2.8337378E-2,4.428571E0,1.2914894E0,